svm_type c_svc
kernel_type precomputed
nr_class 49
total_sv 398
rho 0.522837 -0.319108 -0.221472 0.750202 -0.23728 -0.565862 -0.153143 0.388453 -0.232957 -0.0949575 0.395629 -0.797144 0.298013 -0.229288 -0.421968 0.328792 0.178017 0.604189 -0.0801563 0.410326 0.23585 0.294454 0.507064 0.242005 -0.460219 -0.257882 -0.0705832 0.305996 -0.868048 -0.529126 -0.413747 -0.5054 -0.884773 -0.0564813 -0.0781521 0.149377 -0.238035 -0.226692 -0.578081 -0.980246 -0.168852 -0.116543 0.0749278 0.499767 0.112457 -0.526209 0.123064 -0.202322 -0.728896 -0.669953 0.391458 -0.667607 -0.847272 -0.619469 -0.150931 -0.663575 -0.580878 -0.146136 -0.934543 -0.249469 -0.671769 -0.772325 -0.230532 -0.364442 0.134974 -0.582466 -0.127463 -0.31305 -0.252829 -0.00469388 -0.308934 -0.790707 -0.679368 -0.561302 -0.240905 -0.955565 -0.82478 -0.763227 -0.806419 -0.963196 -0.555271 -0.622378 -0.38955 -0.673334 -0.674805 -0.843547 -0.993829 -0.625912 -0.591965 -0.455673 -0.0129282 -0.421976 -0.827197 -0.415154 -0.645921 0.0956206 0.860723 0.0743304 -0.329398 0.163677 0.620926 0.078794 0.21829 0.632158 -0.682342 0.553987 0.0895491 -0.139396 0.571355 0.458937 0.771612 0.26573 0.635982 0.505365 0.550879 0.705519 0.509663 -0.179878 0.0558531 0.240515 0.559527 -0.766452 -0.300798 -0.123662 -0.232334 -0.844316 0.254265 0.235628 0.435406 0.0738705 0.102216 -0.332273 -0.959133 0.144454 0.197761 0.372243 0.698773 0.404878 -0.26731 0.41423 0.113113 0.834016 -0.0189296 -0.421188 0.0686523 0.560129 -0.0145879 0.127621 0.566972 -0.824464 0.48528 -0.0134598 -0.196183 0.504557 0.38205 0.72656 0.161923 0.577816 0.433659 0.482221 0.65599 0.437012 -0.26714 -0.0399624 0.150658 0.491982 -0.8546 -0.353633 -0.214402 -0.31567 -0.83597 0.165451 0.145437 0.356691 -0.0194479 0.00244217 -0.413261 -0.979335 0.0519321 0.109137 0.289095 0.647757 0.323405 -0.3615 0.3338 0.0192095 -0.836861 -0.923738 -0.810556 -0.507463 -0.835564 -0.788191 -0.504611 -0.967771 -0.579572 -0.840768 -0.890708 -0.564238 -0.658375 -0.265679 -0.784282 -0.489549 -0.624328 -0.582029 -0.390186 -0.618938 -0.899485 -0.845615 -0.778016 -0.573573 -0.979968 -0.915963 -0.88725 -0.908913 -0.980537 -0.773859 -0.783323 -0.674257 -0.837955 -0.834083 -0.926322 -0.996496 -0.816375 -0.795379 -0.713658 -0.397029 -0.695059 -0.914795 -0.691458 -0.825207 -0.376553 0.0881575 0.572673 0.00448287 0.146227 0.57678 -0.681395 0.500044 0.0124385 -0.202293 0.521803 0.39815 0.735722 0.163842 0.588921 0.447661 0.496671 0.663376 0.452541 -0.24587 -0.0193092 0.169172 0.506286 -0.789163 -0.323407 -0.195743 -0.294797 -0.798357 0.183229 0.162892 0.37319 -0.000318468 0.021248 -0.395084 -0.961175 0.0708439 0.12447 0.306375 0.658489 0.340291 -0.328486 0.349888 0.0382395 0.461479 0.780823 0.380443 0.496057 0.784946 -0.434611 0.737466 0.392635 0.19227 0.748804 0.674114 0.871604 0.526454 0.790037 0.705443 0.735805 0.833507 0.708454 0.144405 0.360587 0.513624 0.741602 -0.59507 0.0629176 0.195878 0.0947265 -0.6134 0.527487 0.512558 0.657305 0.376281 0.40253 -0.0218044 -0.916533 0.436154 0.482998 0.612491 0.829573 0.639565 0.0570873 0.642871 0.409063 0.510436 -0.0834962 0.0591077 0.519163 -0.752013 0.430766 -0.0767667 -0.293336 0.450044 0.321848 0.692177 0.0861722 0.528474 0.374699 0.427565 0.611629 0.379694 -0.327296 -0.109362 0.0825804 0.437849 -0.847782 -0.4082 -0.2787 -0.377323 -0.844324 0.0968097 0.0761544 0.294903 -0.0882393 -0.0681667 -0.466692 -0.968465 -0.017162 0.0374176 0.224665 0.605827 0.261705 -0.407855 0.270797 -0.0497347 -0.569542 -0.465745 0.00599988 -0.902089 -0.102157 -0.56444 -0.69429 -0.0784866 -0.225854 0.279662 -0.45142 0.0240287 -0.167827 -0.105968 0.146437 -0.162162 -0.717818 -0.585531 -0.446555 -0.094659 -0.937957 -0.755921 -0.690793 -0.741885 -0.940961 -0.434976 -0.451881 -0.25666 -0.573253 -0.55814 -0.789118 -0.989597 -0.522899 -0.483469 -0.322728 0.138772 -0.288494 -0.758571 -0.278506 -0.546395 0.141893 0.573816 -0.684029 0.496287 0.0080299 -0.206629 0.558746 0.39441 0.732686 0.159616 0.585634 0.444138 0.493365 0.660915 0.449784 -0.250021 -0.0238489 0.165008 0.503041 -0.790945 -0.327364 -0.199979 -0.299726 -0.799895 0.178734 0.158547 0.369278 -0.00487541 0.0167666 -0.398784 -0.961321 0.0663942 0.119893 0.302334 0.656162 0.336416 -0.332553 0.345853 0.0340086 0.471006 -0.752822 0.381341 -0.134218 -0.338669 0.403933 0.267671 0.659667 0.0176691 0.484402 0.322692 0.378054 0.576403 0.328039 -0.37912 -0.165239 0.0236273 0.388782 -0.838882 -0.448371 -0.332198 -0.423156 -0.846064 0.0379181 0.0173106 0.240112 -0.147112 -0.125569 -0.511724 -0.972175 -0.0761762 -0.0222944 0.167728 0.567141 0.20429 -0.45296 0.215186 -0.10893 -0.904256 -0.107959 -0.56911 -0.700034 -0.0851502 -0.231863 0.274497 -0.461991 0.0182083 -0.174213 -0.112237 0.142822 -0.168173 -0.726073 -0.591982 -0.454069 -0.0991918 -0.939456 -0.768378 -0.694967 -0.752215 -0.946673 -0.442963 -0.456858 -0.259073 -0.577736 -0.567122 -0.791344 -0.989544 -0.529822 -0.488187 -0.328049 0.132493 -0.294657 -0.762099 -0.28412 -0.551224 0.88104 0.740071 0.6636 0.886466 0.849138 0.944492 0.854245 0.906436 0.865241 0.880206 0.927762 0.866561 0.52371 0.687456 0.762807 0.883105 -0.272331 0.474224 0.560732 0.49232 -0.271383 0.768804 0.761545 0.841006 0.681578 0.712275 0.392207 -0.811439 0.717862 0.743774 0.817293 0.925036 0.829658 0.477122 0.83312 0.701593 -0.491266 -0.637504 0.0238366 -0.126632 0.382752 -0.366262 0.126424 -0.0668498 -0.00380739 0.244852 -0.0611685 -0.664134 -0.514119 -0.360869 0.00892132 -0.924313 -0.708464 -0.633383 -0.6929 -0.927955 -0.348392 -0.366682 -0.155542 -0.501029 -0.483759 -0.747285 -0.986955 -0.444444 -0.420109 -0.228141 0.237095 -0.192104 -0.711278 -0.181504 -0.470447 -0.2223 0.50835 0.387948 0.729882 0.143129 0.587243 0.438203 0.487541 0.65791 0.442588 -0.260292 -0.0327299 0.157333 0.497176 -0.811521 -0.338395 -0.207321 -0.305884 -0.819956 0.171645 0.151621 0.362558 -0.0127082 0.00857022 -0.40547 -0.971243 0.0586202 0.113459 0.295202 0.651742 0.329544 -0.349049 0.338993 0.0260256 0.651586 0.555947 0.816122 0.382596 0.706824 0.596282 0.63537 0.76495 0.59994 -0.0458153 0.190779 0.359674 0.642891 -0.711356 -0.134 0.00710329 -0.0983407 -0.757304 0.372295 0.354553 0.535113 0.202065 0.226931 -0.209644 -0.942169 0.269475 0.31882 0.479231 0.759823 0.507966 -0.139765 0.515989 0.238939 -0.150022 0.350843 -0.394863 0.102615 -0.0904902 -0.0275161 0.222831 -0.0852978 -0.677313 -0.532576 -0.382584 -0.0149232 -0.927787 -0.72064 -0.647523 -0.70972 -0.931358 -0.370891 -0.388788 -0.178492 -0.517681 -0.511287 -0.757526 -0.98749 -0.464607 -0.420061 -0.250696 0.214599 -0.215086 -0.72298 -0.204618 -0.49137 0.475509 -0.25122 0.248643 0.0601618 0.12313 0.360575 0.0660795 -0.586633 -0.414521 -0.24641 0.135327 -0.903365 -0.639263 -0.550842 -0.619884 -0.908169 -0.232812 -0.25257 -0.0294553 -0.399689 -0.380203 -0.68546 -0.983008 -0.337354 -0.288292 -0.104588 0.353126 -0.0670775 -0.642704 -0.0562293 -0.365792 -0.651277 -0.259062 -0.427458 -0.374542 -0.138998 -0.423197 -0.830721 -0.743565 -0.64557 -0.363433 -0.964415 -0.857475 -0.813449 -0.847687 -0.966325 -0.637158 -0.651867 -0.497899 -0.735771 -0.728195 -0.875486 -0.993941 -0.70016 -0.68066 -0.552953 -0.147092 -0.525873 -0.859858 -0.517762 -0.716832 0.470934 0.307149 0.363158 0.562971 0.312446 -0.39662 -0.192233 0.00621002 0.374067 -0.88829 -0.518145 -0.347815 -0.454438 -0.893471 0.0205902 -0.000354977 0.223768 -0.163645 -0.165988 -0.525385 -0.976203 -0.0932583 -0.0396198 0.150908 0.555302 0.187687 -0.487979 0.198606 -0.125823 -0.191174 -0.129661 0.122882 -0.185592 -0.731175 -0.600991 -0.465616 -0.117046 -0.941855 -0.766016 -0.703066 -0.752506 -0.944631 -0.454292 -0.471038 -0.27605 -0.589737 -0.575667 -0.797875 -0.992409 -0.540124 -0.503994 -0.344147 0.114593 -0.311071 -0.768535 -0.300483 -0.564411 0.063065 0.307295 0.00579025 -0.625046 -0.463903 -0.302705 0.0756804 -0.913929 -0.673674 -0.592987 -0.65641 -0.917961 -0.289394 -0.307361 -0.0895494 -0.448753 -0.43134 -0.716813 -0.984847 -0.392351 -0.342491 -0.163868 0.299127 -0.126788 -0.676759 -0.116105 -0.417524 0.248714 -0.0573045 -0.661729 -0.511638 -0.35784 0.0127694 -0.92357 -0.70656 -0.631035 -0.69009 -0.92725 -0.345358 -0.363302 -0.151717 -0.497011 -0.480498 -0.745429 -0.986596 -0.441391 -0.396932 -0.224547 0.240902 -0.188274 -0.70964 -0.177859 -0.467334 -0.301614 -0.784503 -0.674333 -0.557938 -0.236521 -0.955357 -0.813082 -0.761228 -0.803362 -0.960767 -0.54815 -0.561401 -0.386063 -0.666046 -0.653258 -0.838566 -0.994767 -0.622493 -0.588722 -0.447993 -0.00820892 -0.417348 -0.814994 -0.408272 -0.641615 -0.628335 -0.467874 -0.306612 0.0700053 -0.914794 -0.676647 -0.595325 -0.661017 -0.919102 -0.293589 -0.315284 -0.0951993 -0.452912 -0.436288 -0.718895 -0.985327 -0.394169 -0.34779 -0.170178 0.293972 -0.132386 -0.679797 -0.121811 -0.424198 0.229055 0.399289 0.668982 -0.681865 -0.0860835 0.0529276 -0.0525433 -0.7054 0.41138 0.393483 0.567212 0.245822 0.267583 -0.165194 -0.959332 0.311664 0.362265 0.513826 0.778531 0.541805 -0.0900854 0.548758 0.282122 0.188223 0.520767 -0.804352 -0.311876 -0.178333 -0.279125 -0.795679 0.202536 0.181897 0.389893 0.0191719 0.0416096 -0.378524 -0.960049 0.0903709 0.143631 0.324198 0.669584 0.357819 -0.311349 0.366867 0.057902 0.36862 -0.845416 -0.466995 -0.353298 -0.441808 -0.852399 0.0200763 -0.00656193 0.217736 -0.169614 -0.148567 -0.529024 -0.972308 -0.100833 -0.0458799 0.144748 0.551893 0.18188 -0.478361 0.192028 -0.131818 -0.925574 -0.712719 -0.638572 -0.696662 -0.929131 -0.356143 -0.374148 -0.165635 -0.507504 -0.490263 -0.750996 -0.987156 -0.451462 -0.40744 -0.236369 0.228973 -0.200439 -0.715538 -0.190034 -0.477114 0.629541 0.70227 0.655714 -0.0242834 0.849725 0.843918 0.898272 0.789653 0.803548 0.573046 -0.744155 0.814848 0.837071 0.88248 0.952806 0.890457 0.623292 0.89307 0.803524 0.136616 0.0331043 -0.634965 0.478164 0.464497 0.621575 0.322975 0.35685 -0.0822852 -0.925951 0.385427 0.432091 0.573163 0.809653 0.598429 -0.00485721 0.605398 0.357311 -0.104837 -0.716519 0.366054 0.347343 0.530059 0.195247 0.217024 -0.216182 -0.942709 0.263395 0.312403 0.473535 0.756762 0.502452 -0.142095 0.510524 0.232114 -0.661706 0.453198 0.436806 0.601473 0.29417 0.320797 -0.113966 -0.930169 0.358249 0.404296 0.551019 0.79839 0.577063 -0.0380155 0.58424 0.329035 0.856379 0.851038 0.9027 0.798471 0.826229 0.589834 -0.755774 0.822872 0.849661 0.887708 0.955003 0.895775 0.640736 0.897614 0.811994 -0.020948 0.204092 -0.183431 -0.162786 -0.539838 -0.972999 -0.114945 -0.0601032 0.130674 0.540779 0.168487 -0.484813 0.17913 -0.145849 0.224089 -0.165746 -0.143759 -0.524295 -0.971867 -0.092891 -0.0392923 0.151539 0.555469 0.188137 -0.473421 0.198915 -0.125445 -0.373783 -0.35462 -0.669509 -0.981876 -0.31044 -0.260884 -0.0753825 0.37959 -0.0375733 -0.624935 -0.026842 -0.339779 0.0217306 -0.394615 -0.961576 0.0713335 0.125166 0.306894 0.659104 0.340687 -0.328275 0.350615 0.0386592 -0.412828 -0.963203 0.049914 0.104288 0.287296 0.646659 0.321764 -0.352041 0.331988 0.0172863 -0.912421 0.454212 0.495073 0.625765 0.836195 0.648266 0.0766621 0.655078 0.426837 0.966327 0.986243 0.979184 0.991853 0.980752 0.926841 0.981239 0.96406 0.0539463 0.240806 0.616599 0.27606 -0.390388 0.286938 -0.0326675 0.189259 0.582027 0.225732 -0.440823 0.235824 -0.0864277 0.441366 0.0378009 -0.576918 0.0487291 -0.271283 -0.410259 -0.811623 -0.401205 -0.636335 -0.601556 0.0108351 -0.306071 0.608594 0.362172 -0.315763
label 0 2 3 4 5 6 7 8 9 10 11 12 13 14 15 16 17 18 19 20 1 21 23 24 22 25 26 27 28 29 30 31 32 33 34 35 36 37 39 40 42 43 44 41 45 46 47 38 49
nr_sv 10 45 13 18 30 2 3 12 4 2 3 13 5 7 7 10 15 4 12 43 7 6 4 9 5 5 8 4 7 7 6 3 3 6 5 6 3 4 7 2 2 3 4 3 6 4 4 4 3
SV
5.97884311611878e-09 2.668035217679655e-09 3.050124583905152e-09 6.859982358550467e-09 2.99444352513805e-09 1.700977824690459e-09 3.31841682204304e-09 5.441462606011633e-09 3.011964048750854e-09 3.834246094951725e-09 5.469326473239254e-09 7.928825732873976e-10 5.088326193409418e-09 3.020355180193155e-09 2.265600202707009e-09 5.246559257942036e-09 4.616731354449934e-09 6.298289893595481e-09 3.674675030309392e-09 5.526266908193791e-09 4.848495277038762e-09 5.074129252807845e-09 5.904738614688627e-09 4.878653943272149e-09 2.114392690013264e-09 2.908304999283928e-09 3.642547961461656e-09 5.118876688452889e-09 5.185918110256691e-10 1.84455731322645e-09 2.297842756815703e-09 1.950017195977449e-09 4.505066083212862e-10 3.697217436549931e-09 3.667874825123915e-09 4.504481989213884e-09 2.988569703769223e-09 3.055364328449893e-09 1.653166905198185e-09 7.847327158186218e-11 3.255847048214054e-09 3.462882811661432e-09 4.211772510353806e-09 5.878880901953007e-09 4.35962618055916e-09 1.859684116195626e-09 4.401376106485357e-09 3.145782948353353e-09 0:1 
3.522896062617374e-09 1.688549935087968e-09 1.799397173637156e-09 4.010367735817259e-09 1.737219649928289e-09 1.030304526212963e-09 1.981624126139627e-09 3.161790442844979e-09 1.746625762414286e-09 2.062166942837291e-09 3.18124491397952e-09 4.611363268724626e-10 2.955126613333582e-09 1.798672246199057e-09 1.322260474590025e-09 3.050162155794672e-09 2.682008903424693e-09 3.652742806205386e-09 2.394402526755207e-09 3.211213687943742e-09 2.814612223407218e-09 2.947336105793111e-09 3.430497564721081e-09 2.83269595879566e-09 1.245979266305572e-09 1.762390283109796e-09 2.116087154088524e-09 2.973770748321669e-09 3.165190338274962e-10 1.1592869959066e-09 1.339879728602127e-09 1.280953299113309e-09 2.583795198678682e-10 2.149383693484443e-09 2.097962210246079e-09 2.616877201730051e-09 1.734642365942343e-09 2.057660655262171e-09 9.615123371354386e-10 5.466856737908483e-11 1.891784286890904e-09 2.019668314418413e-09 2.44719865035576e-09 3.413955722864453e-09 2.53259969729336e-09 1.08959184433709e-09 2.55667064833819e-09 1.815757244491465e-09 0:34 
3.632312647896469e-09 1.588064906597277e-09 1.83283909841247e-09 4.129485688097291e-09 1.798881350680315e-09 1.020321320226181e-09 1.996946991747773e-09 3.276497493278339e-09 1.809491676077188e-09 2.136057483382484e-09 3.293279604094006e-09 4.733197560033523e-10 3.062789425235301e-09 1.828269040794806e-09 1.361215209683518e-09 3.30360090783811e-09 2.781757070599624e-09 3.785029403990317e-09 2.235417043089474e-09 3.329843125318239e-09 2.917696368331759e-09 3.054825251711229e-09 3.556422863389465e-09 2.929649444611642e-09 1.274527139718513e-09 1.749535310388199e-09 2.194631429789676e-09 3.081717528815469e-09 3.105230477333925e-10 1.113137406654699e-09 1.383268797609085e-09 1.170859444836569e-09 2.674803822787322e-10 2.230851313779883e-09 2.17579376588278e-09 2.711847255264904e-09 1.798557920060054e-09 1.851687396869094e-09 9.966794697335596e-10 4.675539769367618e-11 1.962045918196449e-09 2.085111820383211e-09 2.536317749854578e-09 3.54045648573299e-09 2.624902549335584e-09 1.117455124891822e-09 2.650240972664148e-09 1.880020467928573e-09 0:42 
4.235604002172661e-09 2.166821128172823e-09 2.128740826377512e-09 4.798494710451409e-09 2.091848455677008e-09 1.192612695907788e-09 2.318550440309389e-09 3.800793320045314e-09 2.101341451331061e-09 2.477085730544171e-09 3.824518187958651e-09 5.538268022530387e-10 3.551510434241072e-09 2.109425167881906e-09 1.580773087075425e-09 3.703657650826531e-09 3.222365491493903e-09 4.390387128209475e-09 2.788817118237283e-09 3.860267414104292e-09 3.38446671853042e-09 3.540785895039844e-09 4.12292055533409e-09 3.401152496264686e-09 1.480355688669462e-09 2.053894151366258e-09 2.542660469341509e-09 3.573780011548652e-09 3.636131975781798e-10 1.311665714500568e-09 1.603659573308234e-09 1.418364922300695e-09 3.12802897472152e-10 2.584217441302804e-09 2.537315635908424e-09 3.145359556457272e-09 2.084658723734359e-09 2.365135687538684e-09 1.156026238606383e-09 5.343872175009959e-11 2.273159131455379e-09 2.417811602156351e-09 2.94078951673856e-09 4.104486069626117e-09 3.043964139762959e-09 1.296083833903748e-09 3.073610259853017e-09 2.181748830668428e-09 0:44 
1.225043164986617e-09 1.208285763299739e-09 6.472082216521083e-10 1.348499985324953e-09 5.778962439662397e-10 3.829549445181791e-10 6.821762898979285e-10 1.051613159826994e-09 5.808435420140059e-10 6.854080336944838e-10 1.064645612356148e-09 2.553773456041069e-10 9.829415580803883e-10 6.060008592357313e-10 4.99150121751948e-10 1.009450105017224e-09 8.922704763912805e-10 1.216591430963817e-09 1.288296554611898e-09 1.066455652905106e-09 9.357834927434083e-10 9.804553205205402e-10 1.15304126496304e-09 9.404621662567536e-10 4.280511274456964e-10 6.057892711500867e-10 7.041779696660718e-10 9.895990091948432e-10 1.071150247476221e-10 4.453483117063646e-10 4.442964648960514e-10 5.780297386801263e-10 1.582065839096117e-10 7.13987836637803e-10 6.987191073314186e-10 8.706681094971804e-10 5.770982159578137e-10 7.897177608225005e-10 3.201278229646779e-10 1.401063392287323e-11 6.301412052534228e-10 6.679851897128835e-10 8.143440541541319e-10 1.136349024331075e-09 8.431299573132437e-10 3.667082089136283e-10 8.524316378479252e-10 6.035729729531799e-10 0:91 
3.897922345319878e-10 4.000207418137509e-10 2.190315473632255e-10 4.055239649955309e-10 1.763240409894008e-10 1.115400619210412e-10 2.786539432593779e-10 3.208392571465631e-10 1.773751051474135e-10 2.091275064777105e-10 3.829650117639432e-10 9.046357751004836e-11 3.00290710534405e-10 2.092909674536417e-10 2.027485452497191e-10 3.066023955514788e-10 2.721738662356554e-10 3.751480688575374e-10 3.523572671042008e-10 3.255518475265856e-10 2.856759775902058e-10 2.990248323808041e-10 3.619148359029862e-10 2.868091162785249e-10 1.256108119436536e-10 2.673450384092209e-10 2.149541252932912e-10 3.017956327195358e-10 5.480809283139708e-11 3.004556919609678e-10 1.418260505929858e-10 1.13754481439136e-10 2.147786992588559e-10 2.179571832567658e-10 2.137511309963353e-10 2.65598234436461e-10 1.757600748447176e-10 2.204537411251368e-10 9.744924496120303e-11 6.849462539051303e-12 1.922090575005482e-10 2.06524642538025e-10 2.486104638078226e-10 3.467406831960384e-10 2.5702012033918e-10 1.136730080924005e-10 2.593833616964233e-10 1.846368102306945e-10 0:134 
8.142111528794291e-09 3.47871851973126e-09 3.969986544554616e-09 8.940948121328843e-09 3.910927805586521e-09 2.214158942394548e-09 4.31464618199719e-09 7.082286795518511e-09 3.916736385920132e-09 4.615390530421194e-09 7.122153936942588e-09 1.030347969204239e-09 6.62121153923446e-09 3.978451866389497e-09 2.945990478134894e-09 7.173254609020907e-09 6.00834312203899e-09 8.206693256271704e-09 4.797837836524136e-09 7.205608247342165e-09 6.304451952840792e-09 6.603061938714243e-09 7.685654182426706e-09 6.369090145545603e-09 2.753858853527251e-09 3.797016760271014e-09 4.73983773390683e-09 6.659999330786626e-09 6.716672423016358e-10 2.403627797599352e-09 2.991739237399748e-09 2.545563645352986e-09 5.836932646353945e-10 4.813866971829471e-09 4.850152571241926e-09 5.862007076424265e-09 3.914746479800399e-09 4.047121168391589e-09 2.150930802043166e-09 9.919642551035633e-11 4.237549521673781e-09 4.50638363674001e-09 5.486890273115644e-09 7.648080664966966e-09 5.678298978780874e-09 2.419676562675588e-09 5.731465898056477e-09 4.123836646384241e-09 0:239 
3.42725724580179e-09 1.63492975120526e-09 1.806080110205571e-09 3.642369819200429e-09 1.583346836049166e-09 9.03175450585341e-10 1.769231890565646e-09 2.883844982012629e-09 1.597557815890128e-09 1.890357366129803e-09 2.937152680041466e-09 4.693333763991765e-10 2.693194178751737e-09 1.875020712580885e-09 1.22313621570561e-09 2.775212768055349e-09 2.442200278887656e-09 3.328512466757541e-09 2.157751498606528e-09 3.038352338061481e-09 2.567889364299973e-09 2.68479988815062e-09 3.207495712009271e-09 2.597129692010666e-09 1.284398508565413e-09 1.552726436644268e-09 1.926491946375099e-09 2.708182778553485e-09 3.22056483072244e-10 1.025575079204842e-09 1.21519340772584e-09 1.03064613120805e-09 4.456680357017454e-10 1.956940422592732e-09 2.00555329542023e-09 2.383256367001738e-09 1.62767864233678e-09 1.710274140073707e-09 8.749402930386822e-10 1.456960542977154e-10 1.722599050918188e-09 1.913835099159548e-09 2.228831454384186e-09 3.109170458258126e-09 2.305767063706625e-09 1.027871755166585e-09 2.3376018707499e-09 1.653774455471567e-09 0:350 
2.053584353845066e-09 1.186892356921258e-09 1.031385626677121e-09 2.308677397042612e-09 1.008303347751249e-09 5.739864512507521e-10 1.162819147747221e-09 1.83143524574975e-09 1.014976678580112e-09 1.197914323277525e-09 1.862166734549629e-09 2.967461776120957e-10 1.713570121588718e-09 1.030303242407118e-09 7.860946027864042e-10 1.791751792885965e-09 1.55449164680961e-09 2.136303152071138e-09 1.302007099474526e-09 1.868868440542295e-09 1.629742912748601e-09 1.708075860128688e-09 1.993405448458828e-09 1.644204252799745e-09 7.11355183202314e-10 9.854775785456349e-10 1.225640006567741e-09 1.722893550183747e-09 1.765171410889914e-10 6.418281795739084e-10 7.751979220110875e-10 6.532898283275506e-10 1.794143238319278e-10 1.245196123722113e-09 1.223454641478552e-09 1.515932451328397e-09 1.002910397914751e-09 1.096102933166754e-09 5.567904060517774e-10 2.537787931783782e-11 1.097023124854982e-09 1.166780866638798e-09 1.417466007772004e-09 1.977692617466402e-09 1.479024139278428e-09 6.242711588997986e-10 1.48122931269405e-09 1.054400122747242e-09 0:375 
5.742919451637225e-09 2.625044239878329e-09 2.933151459087599e-09 6.588202082465774e-09 2.874933040781007e-09 1.635932582309336e-09 3.187472993553561e-09 5.227024960026223e-09 2.890792490013246e-09 3.406211972289515e-09 5.254177018172307e-09 7.612564079914684e-10 4.886361622199653e-09 2.932189184262808e-09 2.174347601111373e-09 5.034503711098086e-09 4.434753261834888e-09 6.040102336532772e-09 3.510214970804865e-09 5.30956681287346e-09 4.651961246248061e-09 4.8738557104259e-09 5.672986869242635e-09 4.674919527887789e-09 2.044856410655212e-09 2.797864905145762e-09 3.498619318490466e-09 4.916516659615882e-09 4.955324949363446e-10 1.774316097007279e-09 2.207742111528419e-09 1.865272139996051e-09 4.331486702910671e-10 3.56709211213863e-09 3.467894841575924e-09 4.327892693004262e-09 2.867807021310024e-09 2.950877304515109e-09 1.58802027375163e-09 7.389029416822371e-11 3.132632026855874e-09 3.325504135786039e-09 4.046414433262388e-09 5.645721373232837e-09 4.188642299727507e-09 1.782958257912942e-09 4.227660888616007e-09 3.149886482820134e-09 0:389 
-9.317091183224228e-10 8.837705348659191e-10 5.913395430955133e-10 2.232213291758521e-09 5.248852471708657e-10 3.632197725351507e-10 6.461681720802668e-10 1.345197879997974e-09 5.335723517412966e-10 6.598728219523163e-10 1.370331267493149e-09 1.522488621590734e-10 1.190386087205274e-09 6.601199901085153e-10 3.599820676814049e-10 1.256515550939684e-09 1.008494059245863e-09 1.797553757279382e-09 1.299844257992739e-09 1.378116909346867e-09 1.086499780034151e-09 1.19416811427062e-09 1.572543781501203e-09 1.11101997165715e-09 4.692628863456824e-10 5.267645467344881e-10 6.934463974830655e-10 1.203257361048889e-09 7.678428894704655e-11 4.693598932538056e-10 3.73838996202719e-10 3.517681456795146e-10 7.267068200744462e-11 7.211180538649102e-10 8.679983756605878e-10 9.665839353920148e-10 5.158339017652558e-10 1.059945372177583e-09 2.475414774039824e-10 2.696430145789879e-12 5.928857774510497e-10 6.540612621505239e-10 8.714781021523726e-10 1.564332911324558e-09 9.180270064562225e-10 2.782731682542361e-10 9.472219890978033e-10 5.610721760365269e-10 0:2 
-1.044123051140656e-09 1.083078007127742e-09 7.699592982232614e-10 2.812210721137124e-09 6.701810296878445e-10 4.095629055182681e-10 9.061548275017021e-10 1.713402731002431e-09 6.797368220662346e-10 8.457135433339633e-10 1.748356564570451e-09 2.787440539138751e-10 1.515144331223907e-09 6.759129035074437e-10 5.905793826091461e-10 1.552874165632088e-09 1.28184392546501e-09 2.285752950531531e-09 1.105696092890334e-09 1.762051112253765e-09 1.385388114033764e-09 1.507084877993029e-09 2.032646778880516e-09 1.392605090884584e-09 4.332651459861042e-10 6.558945467896462e-10 8.968930039348605e-10 1.531890531426978e-09 9.565383400755612e-11 3.968730296612893e-10 4.773806068639847e-10 4.416627152509499e-10 2.033747409549749e-10 8.977636524692157e-10 7.413489898668912e-10 1.232534954480007e-09 6.606659486090421e-10 6.793697401007642e-10 5.677080794916363e-10 1.266233967874953e-11 8.480479073825506e-10 8.239798042885444e-10 1.098761593399952e-09 1.99330574740105e-09 1.166019791010079e-09 3.780870575776067e-10 1.186689487896613e-09 7.217859511833388e-10 0:9 
-6.651215027227987e-10 3.757934970212378e-10 4.587795991097412e-10 2.071916798148652e-09 4.73678306359433e-10 2.20536698712037e-10 5.408815241187422e-10 1.209188478725824e-09 4.796968406443892e-10 6.152352323368217e-10 1.215929349059742e-09 8.940512206769198e-11 1.069201773399399e-09 5.129681223809907e-10 3.190350688780173e-10 1.08089331022192e-09 9.048993993609958e-10 1.614745352138006e-09 5.344224195641802e-10 1.247291659578411e-09 1.053293526049126e-09 1.064279148488299e-09 1.415849547684461e-09 9.662013389328307e-10 3.001004503910025e-10 4.705535129000608e-10 6.243263821330968e-10 1.081304747127817e-09 6.151123515848973e-11 2.455179223994075e-10 3.362420912233281e-10 2.73385694260686e-10 5.215300392736761e-11 6.477673719849297e-10 9.249632899208517e-10 8.6997216629625e-10 5.79217135084943e-10 4.346991391604102e-10 2.231641666565438e-10 5.045369614543047e-12 5.340328261491375e-10 5.749719732289217e-10 7.664056814888455e-10 1.406610474810899e-09 8.529164527477426e-10 2.144436929637104e-10 8.738995903768554e-10 5.04553193682499e-10 0:19 
-1.176414531118111e-09 8.210483766038664e-10 8.136081408521852e-10 3.347083037985512e-09 8.014707479402251e-10 4.369846201270598e-10 9.210541308570074e-10 2.03995752541587e-09 8.061876180290991e-10 1.007786091950834e-09 2.051337393337441e-09 1.631141076032948e-10 1.803597300835512e-09 7.841277848501191e-10 6.09652049459723e-10 1.840527399077523e-09 1.527312183086985e-09 2.7210572938624e-09 1.018538089252204e-09 2.099480576526315e-09 1.649860058062255e-09 1.795089888329483e-09 2.392242362758376e-09 1.663998643096638e-09 5.023459966886492e-10 7.690545941350198e-10 1.046193050842376e-09 1.823751200553121e-09 1.04616166858531e-10 4.40930639229147e-10 5.687717133762697e-10 4.701190995760863e-10 8.264712970402591e-11 1.070217607296853e-09 1.051593868339294e-09 1.466836684339675e-09 7.861683783102429e-10 9.264208464590053e-10 3.747189925176707e-10 1.528070348038494e-11 8.989728990558818e-10 9.820036628863139e-10 1.307073103482007e-09 2.372425204567241e-09 1.391134667740747e-09 3.834591105121599e-10 1.452432214058372e-09 8.531173775843782e-10 0:22 
-2.822039007537038e-10 1.314054747731216e-10 2.45324540210199e-10 8.459586163583065e-10 2.037444464522452e-10 9.141773711360228e-11 2.299137012441006e-10 5.263193207842909e-10 2.089397629995228e-10 2.516067267756841e-10 5.456855701621399e-10 3.647736706539436e-11 4.648401860780129e-10 1.854860798038078e-10 1.481905442987021e-10 4.80600091749408e-10 3.954705783102856e-10 7.027550918437669e-10 1.856497440969303e-10 5.386215507715077e-10 4.241311614516046e-10 4.632582188352565e-10 6.163770459651571e-10 4.376899124345866e-10 1.216715334140742e-10 1.95980267644623e-10 4.262157655558287e-10 4.707010400962235e-10 2.42566996132246e-11 7.923828801859369e-11 1.470356975536173e-10 1.118264655228084e-10 2.0289233474583e-11 3.366714079394143e-10 4.659147463701852e-10 3.77533182254096e-10 1.912088394608224e-10 1.253040748792762e-10 9.673536927609734e-11 3.939016106138403e-12 2.327321409795843e-10 2.509683676183255e-10 3.318279578806989e-10 6.116162291241348e-10 3.551959050705973e-10 3.317248523116794e-10 3.484078668746226e-10 2.193866388033582e-10 0:29 
-6.687608552970448e-10 2.348158542720748e-10 4.052711139662775e-10 1.698033996815054e-09 4.032900533818812e-10 1.239963955060074e-10 4.511022110880855e-10 1.029835660628185e-09 4.047497761674277e-10 5.044265457715301e-10 1.00920422309533e-09 6.895687621184315e-11 9.127712318383608e-10 3.41605974378916e-10 2.677336541990567e-10 8.376780009080432e-10 7.692684592627388e-10 1.370092406019336e-09 3.818505866219254e-10 1.057601780671609e-09 8.289655927146839e-10 9.072237357447118e-10 1.205465376163597e-09 1.026641083396952e-09 2.268807724299308e-10 3.920852247128015e-10 5.034146830426285e-10 9.216007236956613e-10 4.892683704631342e-11 2.003701459329298e-10 2.868318294750855e-10 2.137865882745746e-10 3.841948570455327e-11 5.583712015737508e-10 3.83256476983697e-09 7.412978807274272e-10 4.510791844661798e-10 2.89350245813808e-10 1.901210859154792e-10 0 4.540021590579811e-10 4.909198047714909e-10 7.472788460623603e-10 1.19902424403925e-09 6.991199201808025e-10 1.679369822621697e-10 7.31867092931684e-10 4.25443179008581e-10 0:81 
-5.454755915920902e-12 0 0 6.825907186305078e-12 0 6.060999927732236e-12 0 0 0 0 0 0 0 0 0 0 0 0 0 0 0 0 0 0 0 0 0 0 0 0 0 0 0 0 1.79057749757016e-12 0 0 0 0 0 0 0 0 0 0 0 0 0 0:85 
-3.332974106644521e-10 1.849105873009213e-10 2.19251300313016e-10 9.226224708679529e-10 2.296991490500891e-10 1.114709576491688e-10 2.579899209276576e-10 5.884381816261727e-10 2.316027852896662e-10 3.072329918362275e-10 5.873452415548101e-10 4.576706912613641e-11 5.209927778341642e-10 2.115807893370154e-10 1.574663103997501e-10 5.405031560055575e-10 4.380537691801315e-10 7.878368017856434e-10 2.669378303505675e-10 6.052283714377905e-10 4.667947740131535e-10 5.148464090219781e-10 7.020636698240016e-10 6.053814224687981e-10 1.384032574581858e-10 2.193134212578695e-10 3.009618069846635e-10 5.26705601184923e-10 3.069689695045629e-11 1.151684302190979e-10 1.533452417587384e-10 1.299590321842608e-10 2.472161926000695e-11 3.321973615699377e-10 7.105344880798992e-10 4.236470697429837e-10 3.056854148376894e-10 2.018302673515641e-10 1.079564294544255e-10 2.614250600396971e-12 2.583269258132441e-10 2.830299692453887e-10 4.100130870735302e-10 6.832041480579634e-10 3.977668696017106e-10 1.240902649827494e-10 4.1222925171581e-10 2.466283649336161e-10 0:87 
-3.948554462042458e-10 2.226259170904595e-10 1.40766482977382e-10 7.222732058880772e-10 1.660779423056983e-10 5.244678845872091e-11 2.045346150990961e-10 4.13067368832521e-10 1.635314298359969e-10 2.29543067230094e-10 5.004039895428561e-10 3.601332358391609e-11 3.654417830380766e-10 1.511758082545449e-10 1.110399032854468e-10 4.432358427354674e-10 3.244052663186693e-10 5.531619327444003e-10 3.685479511525059e-10 4.261805328474349e-10 3.337948903901387e-10 3.628640834912009e-10 4.793349239819158e-10 2.963961895435804e-10 1.266637879901656e-10 1.65129117760737e-10 2.317620091864498e-10 3.699085511992101e-10 2.1009683295187e-11 1.775460233880753e-10 1.12378782759651e-10 1.255860602589162e-10 1.653327004026427e-11 2.072864306740516e-10 4.519454266826444e-10 2.978997665147551e-10 2.164779742860473e-10 4.689414632325908e-10 7.626019114893253e-11 0 1.877666080938904e-10 1.962923298313057e-10 2.492090757326548e-10 4.803394362379923e-10 2.912831327173036e-10 8.164929061432671e-11 3.699182954120573e-10 1.718533410037022e-10 0:128 
-2.723465579376536e-10 1.241105394384716e-10 1.752815951170576e-10 9.46240952660889e-10 2.075323537986187e-10 1.146630895908079e-10 2.477345996679798e-10 5.29311705156112e-10 2.078194187658171e-10 2.611244624138872e-10 5.203786087612441e-10 3.099760164219642e-11 4.677769606114239e-10 2.565415461181164e-10 1.366406482708809e-10 4.640913515298006e-10 3.947978067199756e-10 7.044622280876273e-10 2.468689025942186e-10 5.401949555853608e-10 4.114003692196788e-10 4.646806911256643e-10 6.134551511004162e-10 4.771244627137986e-10 1.376939628299844e-10 1.954100829940467e-10 2.68512465852573e-10 4.736325682696627e-10 3.38002571935653e-11 8.591149704482972e-11 1.401620416419505e-10 1.118352677851231e-10 2.016937434858039e-11 2.561789840296321e-10 1.985893441367165e-10 3.807395245243213e-10 2.312071782142211e-10 1.726250842950172e-10 9.690272715275659e-11 0 2.319910355482323e-10 2.503256198501722e-10 3.055371161009991e-10 6.143981045706301e-10 3.919085822446958e-10 7.432822533471806e-11 3.566832948480818e-10 2.188700130251179e-10 0:140 
-1.068235025170071e-09 4.110852735125067e-10 5.300541871528816e-10 2.281948378380522e-09 5.615407789012949e-10 2.514518441731064e-10 6.299195420358728e-10 1.409091148401753e-09 5.574617905999308e-10 8.040186695586069e-10 1.498077373548945e-09 1.0328440042424e-10 1.24696667489198e-09 5.350641568116012e-10 3.727195336619446e-10 1.798339369212799e-09 1.054093061226973e-09 1.881367165582201e-09 6.369602270138286e-10 1.449975535727959e-09 1.138068981722031e-09 1.243925354495371e-09 1.672838140320364e-09 1.270987133736212e-09 3.383379705228862e-10 5.349807985099653e-10 7.210591396879096e-10 1.259562489361275e-09 7.371347429832867e-11 2.454506168840049e-10 3.92257491379267e-10 3.126518757918453e-10 5.916998734660939e-11 7.998567807216195e-10 7.333116880215229e-10 1.012906307609008e-09 5.628824427500633e-10 4.809984042466982e-10 2.604946220546701e-10 1.037243554338252e-11 6.212386528553417e-10 6.754366555651863e-10 9.237082022596777e-10 1.637861545657507e-09 9.608098142915343e-10 2.565762372539538e-10 1.065714921070086e-09 5.875319181567395e-10 0:146 
-7.35844618761225e-10 4.043107497409429e-10 5.05665219905155e-10 2.159809298417577e-09 5.030742420174717e-10 2.293879261510933e-10 5.878363390892801e-10 1.28174580145511e-09 5.082013085762047e-10 6.606181663088839e-10 1.316795610362251e-09 9.833058301902263e-11 1.13309426929276e-09 4.781041046646192e-10 3.428422216020944e-10 1.273102544714032e-09 9.603484076384284e-10 1.713681086963757e-09 5.955503502568339e-10 1.315604100528725e-09 1.099329099561239e-09 1.129271338716464e-09 1.504134968336707e-09 1.021160383817951e-09 3.150809862667181e-10 4.830668178493094e-10 6.622725215197133e-10 1.146069907848228e-09 6.482215697706693e-11 2.915703903657617e-10 4.167346509947092e-10 2.973580070180249e-10 5.410665143081808e-11 6.697381629487514e-10 9.870135988551642e-10 9.232734207375621e-10 5.27710194830639e-10 5.108760578148742e-10 2.378684142700954e-10 6.760479896240627e-12 5.648129315718915e-10 6.124618974090869e-10 8.215979526332641e-10 1.489685591638837e-09 8.709628685095877e-10 2.636381551559777e-10 9.050739947290561e-10 5.352226264239176e-10 0:172 
-1.804049291935436e-10 2.013238991365793e-10 5.597357816543111e-10 5.723438792652028e-10 1.343861031941798e-10 2.215171186322413e-10 1.968174984217059e-10 3.456168542422123e-10 1.365771937652277e-10 1.716393471965694e-10 3.487196100755582e-10 7.549216775206236e-11 3.04933327587161e-10 3.913279908399516e-10 1.201165681761534e-10 2.918440629554824e-10 2.582492820472769e-10 4.6940029046955e-10 6.115722878545314e-10 3.551271127800772e-10 2.766311851727527e-10 3.03107463196164e-10 4.017435216117107e-10 2.712610883647375e-10 9.947576862151001e-11 1.346986267725325e-10 1.83902850374236e-10 3.084836880687724e-10 3.40537139463603e-11 1.301385478544477e-10 9.638608348838753e-11 7.501510428332038e-11 2.106068888340731e-11 2.514726809135333e-10 1.851950696060407e-10 2.484238389812646e-10 1.290707124336606e-10 3.266108093099099e-10 6.584419530175593e-11 3.56617627348728e-12 1.520017477514358e-10 1.910304290754878e-10 2.205699524619046e-10 4.007180228956507e-10 2.376507712315263e-10 3.950436906074016e-10 2.293078619784896e-10 1.439834088599235e-10 0:174 
-5.800971954904939e-10 1.570478554518283e-09 5.280709561735871e-10 1.067182608336009e-09 2.513753142630546e-10 2.600979309119483e-10 3.474143097689474e-10 6.423730182219666e-10 2.538536845470143e-10 3.176560785978534e-10 6.539441462543896e-10 4.288741362110114e-10 5.687843318591419e-10 3.636893839002044e-10 3.868679805008594e-10 5.741572808071178e-10 4.813734628649694e-10 9.163030447060706e-10 9.379539918087978e-10 6.594809393429125e-10 5.204271627332804e-10 5.656922585363665e-10 7.993384487759929e-10 5.210695839323064e-10 1.604795481851603e-10 2.67568855336421e-10 3.355492547484731e-10 5.742520719967153e-10 4.890084350103555e-11 1.996419967339836e-10 1.786015933741057e-10 1.825665112767193e-10 3.170157157315088e-10 3.350383649658496e-10 4.192998445159501e-10 4.62660871753271e-10 2.456875116703323e-10 4.763257042646845e-10 1.549858170699358e-10 5.566132241153048e-12 2.770168878958439e-10 3.067171600333977e-10 4.123428146474868e-10 7.472418397725117e-10 4.413609097705965e-10 1.72906281478764e-10 4.459077050855085e-10 2.701611764763779e-10 0:181 
-1.208784778588868e-09 6.967904587096371e-10 8.262397688757119e-10 3.783402676594405e-09 8.38715236575707e-10 3.893900479913084e-10 9.588636653483111e-10 2.140688644885152e-09 8.47995904887104e-10 1.057403881383473e-09 2.149700698266846e-09 1.664721669930746e-10 1.890778647529247e-09 8.908976752316062e-10 5.731146767262926e-10 1.938562757663239e-09 1.601589466290687e-09 2.868976721917844e-09 1.063057724065894e-09 2.196715942639661e-09 1.788701564519495e-09 1.88186455478045e-09 2.50891906681237e-09 1.744912526907067e-09 5.454013268351223e-10 8.085313407745713e-10 1.110165745659598e-09 1.914281701562801e-09 1.121484127649182e-10 4.401201286828947e-10 5.979352376654546e-10 4.880309716995702e-10 9.44407211219673e-11 1.175334656988518e-09 9.034266429767565e-10 1.53856006814684e-09 8.142744833501119e-10 8.304138141771317e-10 3.971967175937465e-10 1.427398102942622e-11 9.524587925628504e-10 1.028859692908721e-09 1.343677450082896e-09 2.489547019193108e-09 1.463046266796683e-09 4.319140836890853e-10 1.480255623298398e-09 9.145705017790121e-10 0:183 
-1.303977958122846e-09 7.357227635239642e-10 8.924037388193997e-10 3.872457718068507e-09 9.267241865145701e-10 4.238205572217526e-10 1.057597528407085e-09 2.35661747755402e-09 9.402739604553523e-10 1.19768064426247e-09 2.373017205789358e-09 1.772672749909617e-10 2.085433492197737e-09 9.112094706894516e-10 6.480068255023327e-10 2.269571040768957e-09 1.765585289787679e-09 3.152077944703292e-09 1.21365348583353e-09 2.418108386438177e-09 1.937258279426046e-09 2.073261521542328e-09 2.766756741239368e-09 1.962814282201734e-09 5.761243268423677e-10 9.074696336272203e-10 1.209488814929107e-09 2.107683375647545e-09 1.217545600674642e-10 4.878813614631724e-10 6.559219865809191e-10 5.323068695137769e-10 9.787259165059063e-11 1.246249259537353e-09 1.742828897489056e-09 1.695876989022511e-09 8.797233202265673e-10 9.181884925476861e-10 4.331515253129961e-10 1.447511788766345e-11 1.038556235353979e-09 1.132266508196963e-09 1.50267876443138e-09 2.74037812961125e-09 1.609733627582566e-09 5.150839468507152e-10 1.619897685319124e-09 9.940289333785358e-10 0:191 
-1.990830639440148e-09 1.131578889680023e-09 1.367550677154321e-09 5.767028582329207e-09 1.479550374919313e-09 6.318345315119979e-10 1.574220478421712e-09 3.515236549988329e-09 1.392086239039826e-09 1.749747218340773e-09 3.540165837594353e-09 2.691129033425353e-10 3.107084075520865e-09 1.370431878966846e-09 9.535053742509972e-10 3.185300210892854e-09 2.633878870889447e-09 4.704153320245351e-09 1.728742776456377e-09 3.642930060137499e-09 2.845361356142815e-09 3.09484120189742e-09 4.122466446961099e-09 2.861647055469576e-09 8.658636435149875e-10 1.332456039016829e-09 1.815495273003492e-09 3.142867621912349e-09 1.83702788284637e-10 7.598311151229304e-10 9.795091022682715e-10 8.00284236644703e-10 1.52123688400041e-10 1.845705760710376e-09 1.566886539146364e-09 2.526369181202541e-09 1.352200676016843e-09 1.348752064976735e-09 6.477142266716363e-10 2.542450803423843e-11 1.548432656064266e-09 1.689597174205488e-09 2.251968514313043e-09 4.089434207504206e-09 2.407807575964871e-09 7.150618677838365e-10 2.420361155715771e-09 1.491943763978746e-09 0:193 
-3.061688901438166e-09 1.73673616356866e-09 2.122604559789073e-09 8.96099695414079e-09 2.129405000661157e-09 9.772982126896113e-10 2.439621833350531e-09 5.441254302665124e-09 2.15595086172049e-09 2.797729562273634e-09 5.496579299877932e-09 4.179566998026493e-10 4.809457951638497e-09 2.103521482565548e-09 1.45743863195466e-09 4.931489135403382e-09 4.075794310009672e-09 7.274229575744335e-09 2.678113276419275e-09 5.593021780123919e-09 4.525553984674045e-09 4.787760509443023e-09 6.403818894560182e-09 4.428199764207607e-09 1.342495141709323e-09 2.05267692064398e-09 2.817117799504145e-09 4.865553435018346e-09 2.846888252723185e-10 1.124740369898513e-09 1.516947965804164e-09 1.251037816685002e-09 2.349170293203213e-10 2.852651851957132e-09 2.425985046847205e-09 3.912118663615451e-09 2.101635354313399e-09 2.090955867684284e-09 1.002676205322269e-09 3.785770054419608e-11 2.403274876810517e-09 2.612015244907183e-09 3.487667456715688e-09 6.324905423171145e-09 3.702297480325072e-09 1.106706124011762e-09 3.756235720177576e-09 2.269714280577072e-09 0:202 
-1.425298046177619e-09 8.254076270305078e-10 1.211074254561509e-09 4.162878543956856e-09 1.001292957142652e-09 6.036787657305603e-10 1.292491834006916e-09 2.555676583479485e-09 1.012299966285531e-09 1.261658465649252e-09 2.580012583830168e-09 1.947665677394911e-10 2.265413060860679e-09 1.040543563917539e-09 7.422529013198509e-10 2.30846868986257e-09 1.915785522087399e-09 3.41894730733879e-09 1.218760846820188e-09 2.621009759902801e-09 2.072713162377076e-09 2.252427288833876e-09 3.010780027361148e-09 2.087505423961672e-09 7.403111945919741e-10 9.669694014271904e-10 1.327180244878975e-09 2.286621308440118e-09 1.557197976536857e-10 6.041624802329495e-10 7.136553964437191e-10 5.813024560508392e-10 1.520577155414107e-10 1.369897872305492e-09 1.113394741894882e-09 1.839037972114406e-09 9.789392849221277e-10 9.52863637335411e-10 4.711883122402123e-10 2.1834400584501e-11 1.127320242529959e-09 1.240508310288595e-09 1.77322647213746e-09 2.973248822126046e-09 1.763116289459683e-09 6.145477994961445e-10 1.76323684357571e-09 1.063614558961583e-09 0:207 
-4.684883378523769e-10 1.995522704023242e-10 2.816223054870223e-10 1.050362343913487e-09 2.474029783547877e-10 8.527989560658127e-11 2.863979866448068e-10 6.295289091252199e-10 2.554353549974283e-10 3.07434041179163e-10 6.520204424720505e-10 4.832063216975872e-11 5.547659177650886e-10 3.877591681080934e-10 2.03895678780654e-10 6.646792533259296e-10 4.708863449928056e-10 8.51620250553023e-10 3.479380201084824e-10 6.40314168075683e-10 5.053652771697908e-10 5.560989213682232e-10 7.341869498172088e-10 5.106970429523033e-10 1.464621505458332e-10 2.900124840889756e-10 3.408332666185476e-10 5.610423839199652e-10 3.22646586588711e-11 1.201022523047339e-10 1.736193128678775e-10 1.296636047554623e-10 2.620628576696552e-11 3.252582455368262e-10 1.157833959672371e-09 4.511685703464148e-10 4.523808847561927e-10 2.417452731778867e-10 1.145467301309617e-10 0 2.768443339462461e-10 2.964417954281505e-10 3.795700146268513e-10 7.298834762161117e-10 4.285330623251545e-10 1.381591402922404e-10 4.403209933066958e-10 2.713485343666832e-10 0:215 
-2.61002349331859e-10 0 0 0 0 0 0 0 0 0 0 0 0 0 0 0 0 0 2.097742890014406e-11 0 0 0 0 0 0 0 0 0 0 0 0 2.9174389223676e-11 0 0 1.043261963336882e-10 0 0 0 0 1.461150722198532e-12 0 0 0 0 0 2.446638691925314e-11 0 0 0:216 
-3.622870742557196e-10 2.393183454370918e-10 2.302502271901544e-10 6.988497807258463e-10 1.477712486361247e-10 1.997774870352359e-10 1.64217431976204e-10 3.511832028188465e-10 1.39180119228932e-10 1.748906733601014e-10 3.527396222441529e-10 3.766594917990585e-11 3.103199941073206e-10 1.580948146677999e-10 1.446307878076757e-10 5.758435715831107e-10 2.6182631783274e-10 4.713631320142804e-10 7.794934034113456e-10 3.595905471713373e-10 2.885092236052041e-10 3.085207268509393e-10 4.595538879391392e-10 2.807866273248386e-10 1.408545692109181e-10 1.35341676795956e-10 1.747244198078783e-10 3.136067335157452e-10 1.821912726106578e-11 3.170611828783955e-10 1.045188431085923e-10 1.405163033339249e-10 2.210837746874816e-11 2.36499348447706e-10 2.555249973746386e-10 2.520171660923126e-10 1.290849866329873e-10 8.643226974465912e-10 6.423043982662045e-11 2.797378273630448e-12 1.543649027198966e-10 1.733491895481984e-10 2.239173501591326e-10 4.07626253387399e-10 2.466819217906137e-10 1.860479112963996e-10 3.42185422695024e-10 1.459404591833012e-10 0:222 
-2.047510381055334e-09 1.112078211357474e-09 1.448537275035554e-09 5.758233378513091e-09 1.390265953800515e-09 6.421639691868479e-10 1.598944822721921e-09 3.545055012287743e-09 1.406883201868465e-09 1.752635943362219e-09 3.611097287235265e-09 2.70990747366246e-10 3.134144769170396e-09 1.435410950988393e-09 9.480445645007073e-10 3.263604747005427e-09 2.653139156388935e-09 4.73827978163395e-09 1.790145732874035e-09 3.655305617383248e-09 2.925310579379283e-09 3.118578712887202e-09 4.17229041117901e-09 2.90543197772819e-09 8.584468700829966e-10 1.342417277524909e-09 1.844381814943379e-09 3.168367703798567e-09 1.891100898207342e-10 7.251102803429722e-10 1.02075979393176e-09 8.062003131965358e-10 1.500071188258934e-10 1.896357336303575e-09 1.409692880510106e-09 2.54833937823758e-09 1.418097004784768e-09 1.362320249397752e-09 6.533264722585812e-10 2.462908479567249e-11 1.562557208998479e-09 1.705222183699537e-09 2.288204380661193e-09 4.120697371740017e-09 2.402859303115275e-09 7.174857904817114e-10 2.474058434109697e-09 1.480682745143077e-09 0:230 
-4.918318962218252e-10 2.938459977465364e-10 3.54740577905422e-10 1.622883053576029e-09 3.576774928141963e-10 1.635641955178779e-10 4.154903406408382e-10 9.152928567468865e-10 3.632463068005808e-10 4.345721694129632e-10 9.151976604412759e-10 7.1136551544911e-11 8.098520002626781e-10 3.36137109821695e-10 2.457023876434062e-10 8.178301639106184e-10 6.83153207961078e-10 1.226218847446979e-09 4.433773802172632e-10 9.366190041519829e-10 7.431424355740323e-10 8.07551974157743e-10 1.072480730996414e-09 7.800427010857965e-10 2.230664941308952e-10 3.435585264337123e-10 4.692764206287697e-10 8.198577736735066e-10 4.832440127797001e-11 1.898237215103288e-10 2.519033575490367e-10 2.074116491468018e-10 4.26884003574813e-11 4.623030876826555e-10 1.290093737491045e-09 6.605202757480857e-10 3.427339164334064e-10 3.417555796041964e-10 1.712169372338827e-10 7.446236208524438e-12 4.020555021394533e-10 4.406606326444684e-10 5.789542378544231e-10 1.065807970239937e-09 6.209837166286422e-10 2.066067793793089e-10 6.264952420702972e-10 3.818622281805066e-10 0:252 
-1.009505909315335e-10 0 8.483449090885347e-11 1.825233216269787e-10 4.17089012430571e-11 0 3.659347603038373e-11 1.084967768946575e-10 4.352403950642128e-11 4.720731026447346e-11 9.970243144190422e-11 6.662431635907952e-12 9.587128979443525e-11 3.545253591585865e-11 3.570150444670618e-11 1.004620958422104e-10 8.155537577836721e-11 1.407948768476993e-10 6.8993760257561e-11 1.129675921484669e-10 8.331438848654243e-11 9.530990900496687e-11 1.251659134466329e-10 1.115340278636179e-10 2.384138618372011e-11 3.699613375422244e-11 4.738577997789791e-11 9.702650592651529e-11 4.038706949258945e-12 0 2.757276065044287e-11 4.235944942524542e-11 1.350690148528055e-12 4.34396551351569e-11 2.109029361897608e-10 7.855278037817503e-11 4.394531288582744e-11 0 1.900697207455164e-11 0 4.739915023158994e-11 4.732200470809061e-11 7.082587599132842e-11 1.27204729817656e-10 6.863033673573552e-11 5.074496322310745e-11 7.395631365006856e-11 4.550305165895025e-11 0:253 
-4.141276817517828e-10 2.551625620550326e-10 2.935916203124212e-10 1.469252283107062e-09 2.889729406817723e-10 1.308473967564311e-10 3.357509073973946e-10 7.520585473717458e-10 2.933948272890969e-10 3.64519566541297e-10 7.445247832657092e-10 5.722217500009766e-11 6.664309025120739e-10 3.123794661735212e-10 1.991937597297711e-10 6.74057645337452e-10 5.532180996448314e-10 1.004364332375592e-09 3.658836898410147e-10 8.016264484411055e-10 6.021233705069722e-10 6.514823230261494e-10 8.805074093245833e-10 5.943571855414707e-10 1.498843647432792e-10 2.782075091776706e-10 3.829747595746665e-10 6.615940013087334e-10 4.378744408740469e-11 1.518524888671175e-10 2.065434771021477e-10 1.677018037840057e-10 3.057772210642969e-11 4.69619841290733e-10 4.162193761960241e-10 5.331875774778822e-10 2.923064402263413e-10 2.714945261856677e-10 1.363469248354968e-10 5.56911762327361e-12 3.255210216126997e-10 3.678835708161955e-10 4.342447598946045e-10 8.612639627301769e-10 5.029973121250565e-10 1.457927490832856e-10 5.117419961627516e-10 3.095183995610899e-10 0:255 
-9.113691430074503e-10 5.470995780343676e-10 6.049073615039297e-10 2.50417130845568e-09 6.119648452130925e-10 2.993425490038864e-10 6.942742956680156e-10 1.540799605802555e-09 6.092367201960745e-10 7.662217927386866e-10 1.569044008907504e-09 1.248444305290221e-10 1.362160872896811e-09 5.924357504079058e-10 4.651591471182215e-10 1.528606009367758e-09 1.15289440805477e-09 2.059882644665629e-09 8.395931903534591e-10 1.584658636511032e-09 1.248217100988044e-09 1.356265411749836e-09 1.802879339872437e-09 1.25531206569565e-09 3.949010524407858e-10 5.775854774638597e-10 7.858391506480408e-10 1.377250306654949e-09 7.987679455424071e-11 4.793922475157108e-10 4.29504710483242e-10 3.463694957404948e-10 6.965348923424879e-11 7.889569222502383e-10 6.054880144790492e-10 1.108666307222477e-09 5.908847320544433e-10 6.340293617689566e-10 2.843395756882106e-10 1.222530209139171e-11 6.826244516583189e-10 7.390288191587292e-10 9.884950460085681e-10 1.792097536812907e-09 1.055894445326135e-09 3.877259087122096e-10 1.049881197009114e-09 6.415580083252088e-10 0:256 
-3.933192624253143e-10 2.242819856893156e-10 3.765834283791997e-10 1.378125811940937e-09 2.823104248149806e-10 1.287662119926048e-10 3.438048836853594e-10 7.241333702589975e-10 2.861700328626281e-10 3.545936137363525e-10 7.586690301822091e-10 5.699664554646174e-11 6.405310816028804e-10 2.919708650671929e-10 1.932409913585456e-10 6.372352938382898e-10 5.443455544580605e-10 9.68577657220223e-10 4.016773147875318e-10 7.418169636357713e-10 6.263560334449346e-10 6.374070327392523e-10 8.64084558994879e-10 5.82100186317828e-10 1.747240334411955e-10 2.757085737673718e-10 3.769941402057118e-10 6.476722520488394e-10 3.93086679713755e-11 1.485720293681735e-10 2.166444590141017e-10 1.814219329156775e-10 3.163437264644433e-11 3.862794078742184e-10 2.88602983913162e-10 5.189644312094899e-10 2.883640292922964e-10 2.63032293833345e-10 1.330223996501989e-10 3.785362785716363e-12 3.205910336473684e-10 3.542530609962767e-10 4.20926224717754e-10 8.429252105233414e-10 4.919896450506514e-10 1.418303609637236e-10 5.26296551236761e-10 3.011367484020124e-10 0:287 
-1.652396746460281e-09 1.14251731172105e-09 1.181219231333462e-09 4.698747534866769e-09 1.122400344246969e-09 5.267125060823109e-10 1.282564225143406e-09 2.884158079313217e-09 1.135561220679804e-09 1.419125799246528e-09 2.883326565813925e-09 2.205081864427694e-10 2.570546559869695e-09 1.36485773772008e-09 7.661831505624178e-10 2.598909444563226e-09 2.147139457061374e-09 3.843065230386272e-09 1.433080548502144e-09 3.016395656028278e-09 2.324517193804379e-09 2.523307003801802e-09 3.375387069354306e-09 2.331990598021187e-09 8.811331527057329e-10 1.084433888011764e-09 1.487844606329963e-09 2.564616718390595e-09 1.730059539790292e-10 6.175988437595187e-10 7.999136823961536e-10 6.546492252288412e-10 1.464772979526709e-10 1.540111688064835e-09 1.246064740210476e-09 2.06048433975237e-09 1.099824135491434e-09 1.134696757555635e-09 5.282206350952546e-10 7.407076153153815e-11 1.263407750567962e-09 1.398341801549017e-09 1.832626045143211e-09 3.33301114784175e-09 1.977064381446518e-09 5.831207707113368e-10 1.97368418813977e-09 1.25840833900555e-09 0:296 
-1.868465290222944e-09 1.02979503618419e-09 1.249812193540639e-09 5.294523485035347e-09 1.257947689086463e-09 5.808730660927858e-10 1.439466384244119e-09 3.214859066258955e-09 1.274753805615303e-09 1.589161580436327e-09 3.234157018704238e-09 2.47883964455518e-10 2.841969074574918e-09 1.241765429252679e-09 8.616349319046186e-10 2.905295384016128e-09 2.406876884637323e-09 4.29740980626474e-09 1.5842073306163e-09 3.305032883798017e-09 2.678269883572398e-09 2.82813271942851e-09 3.777658195120104e-09 2.925085938034128e-09 7.924775304600437e-10 1.210802560389147e-09 1.664715423549508e-09 2.873094774050746e-09 1.678967025706268e-10 6.642278690552406e-10 8.971070770874721e-10 7.33294634211263e-10 1.387748338138445e-10 1.678988741108538e-09 1.452427220904326e-09 2.310767732775436e-09 1.288061829756013e-09 1.233594149270028e-09 5.923521743406977e-10 2.375059555059187e-11 1.416324079068533e-09 1.544800640543875e-09 2.088122034800859e-09 3.751485510791769e-09 2.186156419826696e-09 6.562057622125244e-10 2.244638621495713e-09 1.339117577530279e-09 0:299 
-3.73753495572265e-10 2.012752082619929e-10 2.779632830523613e-10 1.05493569932164e-09 2.342094645518722e-10 9.855594203400075e-11 2.61994970378566e-10 6.063281363533817e-10 2.373922464539092e-10 3.046537142470157e-10 5.899700859935684e-10 4.44882169259764e-11 5.289893326150706e-10 3.499453244687418e-10 1.551630956626734e-10 5.440687893833079e-10 4.412913032326331e-10 8.045784747607798e-10 2.815130993866776e-10 6.575944627482998e-10 4.74681929980739e-10 5.190689614766121e-10 6.817192941724328e-10 4.894623165131068e-10 1.779631523037451e-10 2.238545332502048e-10 3.045955390255803e-10 5.279032944568385e-10 1.393281056964914e-11 1.191621431761444e-10 1.620738185164042e-10 1.323453271332866e-10 0 2.789887380385623e-10 4.258525524532236e-10 4.245799470548391e-10 3.188078494358531e-10 2.981111966292605e-10 1.079438959688763e-10 0 2.598036882912282e-10 2.867146077524381e-10 3.666729501752889e-10 6.864790742685837e-10 3.99797494563777e-10 1.30262014809663e-10 4.024556903153861e-10 2.492410343067511e-10 0:300 
-7.937975107374394e-10 4.661618368479527e-10 5.311618954898723e-10 2.404463659225604e-09 5.593098377435818e-10 2.358669826878616e-10 6.262473209892271e-10 1.429966946494634e-09 5.669278328171905e-10 7.073654801717634e-10 1.443723767383348e-09 1.098027427379057e-10 1.262982093551531e-09 6.140784532054309e-10 3.822154859864664e-10 1.318957919709786e-09 1.072723402552211e-09 1.912197513457118e-09 6.749685247232032e-10 1.475004654176185e-09 1.148833411761243e-09 1.261986421799456e-09 1.67379349642553e-09 1.156721616054779e-09 3.479450050364465e-10 5.451119844908418e-10 7.44339468566251e-10 1.279450548169691e-09 7.200887665415395e-11 3.024006192971918e-10 3.970204620348028e-10 3.234580391712366e-10 5.911292061430957e-11 7.859712249556704e-10 7.170716076076517e-10 1.029428722997192e-09 5.577156090429642e-10 6.319696547758812e-10 2.627068941665467e-10 9.914801255449686e-12 6.291128947363722e-10 6.839931852271999e-10 1.214639005354091e-09 1.662882002588301e-09 9.652680857524359e-10 2.906044282368122e-10 9.731641111268407e-10 5.971815925503877e-10 0:306 
-8.43625669963565e-10 5.169219116670251e-10 6.273465872786552e-10 2.388891852691457e-09 5.718196736183339e-10 2.681934989067811e-10 6.405407034895532e-10 1.453489139222227e-09 5.819698412692786e-10 7.175359783199843e-10 1.461095938606827e-09 1.128225082933292e-10 1.284267974125374e-09 5.623470592897378e-10 4.656246418030127e-10 1.379167001216841e-09 1.087786514863222e-09 1.996117722908406e-09 8.630167992001846e-10 1.490845508198185e-09 1.189251574194938e-09 1.278147855109152e-09 1.695491165750437e-09 1.253655455741041e-09 3.560346172774213e-10 5.666959478012476e-10 7.79756409055852e-10 1.298894040266638e-09 7.447424704019663e-11 2.99475569259402e-10 4.054851760067351e-10 3.806395700619953e-10 5.910551581337236e-11 7.884342780083933e-10 8.506163877069048e-10 1.044048342170226e-09 5.46569694064966e-10 1.120844233540293e-09 3.177184433549404e-10 9.072962952951361e-12 6.416527104379139e-10 7.004513184914521e-10 9.331642471370351e-10 1.689344126282404e-09 9.912912630848295e-10 3.991801593423886e-10 9.967101947872555e-10 6.150145039328595e-10 0:310 
-3.819791657462654e-10 4.332665918160547e-10 2.782909553124872e-10 1.065078438642855e-09 2.537762652488083e-10 1.164141215794261e-10 3.068573692596704e-10 6.565228194635387e-10 2.572459336366837e-10 3.198500398101471e-10 6.534028933101761e-10 4.983707046964363e-11 5.854369954343497e-10 3.323064245179288e-10 1.769773922974071e-10 5.875030793185253e-10 4.851273113114702e-10 8.923398204696456e-10 3.2826375062791e-10 6.79608309458469e-10 5.246820111678354e-10 5.709365659036468e-10 7.599821266443883e-10 5.283951826758012e-10 1.91975641587779e-10 3.498552150776626e-10 3.347767381303509e-10 5.794777808079179e-10 3.643449399182245e-11 1.400273703403312e-10 1.839127654441895e-10 1.476640772464309e-10 2.969369527660182e-11 3.389564317965627e-10 2.879376129966291e-10 4.661394791015852e-10 2.494649371946476e-10 3.0920767520663e-10 1.19912118564179e-10 4.786537251429992e-12 2.869956916076118e-10 3.111550384674495e-10 4.159638226810491e-10 7.534891552207179e-10 4.451438686133282e-10 1.315940941020844e-10 4.471881064818097e-10 3.416855409255326e-10 0:313 
-3.85746868420226e-10 2.294554676588754e-10 2.818120183394444e-10 1.361101341827862e-09 2.880050429538091e-10 1.244677763946279e-10 3.339689861232711e-10 7.3268301474726e-10 2.90289040766333e-10 3.673769941852781e-10 7.390928016406401e-10 5.52141393550926e-11 6.476567777431681e-10 2.653361158604862e-10 1.955028465884182e-10 6.59987626047984e-10 5.506626621460037e-10 9.804018724593663e-10 3.267974020740246e-10 7.526199924841905e-10 5.946226116089346e-10 6.438547627437632e-10 8.557283582129507e-10 5.871197000090427e-10 2.225185577115721e-10 2.751544222043592e-10 3.784982462775831e-10 6.564148295158425e-10 3.717217377966101e-11 1.438229398900623e-10 2.034376709676001e-10 1.646513449257194e-10 3.349627856107701e-11 3.709475799560448e-10 5.887018114659807e-10 5.287366945428044e-10 3.321217648120742e-10 2.682401722530644e-10 1.353485860172716e-10 0 3.235126565631583e-10 3.538790889087753e-10 5.66249050135382e-10 8.548833132882198e-10 5.046095465653316e-10 1.658280139073663e-10 5.5823471160609e-10 3.051704075326454e-10 0:326 
-2.246694290392988e-09 1.270903081000291e-09 1.562498931600312e-09 6.624741606668951e-09 1.582772766298337e-09 7.212981198489384e-10 1.822902373148369e-09 4.042076537683758e-09 1.609108864729262e-09 2.195605898790669e-09 4.12751243084595e-09 3.074877398609033e-10 3.573088493033555e-09 1.554893998098057e-09 1.080336974898309e-09 3.678133769470919e-09 3.027444637009915e-09 5.406044578624511e-09 1.997968654918278e-09 4.150881993069792e-09 3.268817311656971e-09 3.557632213020072e-09 4.739613995429017e-09 3.274456605078786e-09 9.978407611661853e-10 1.523077241425738e-09 2.089445292749179e-09 3.61500008673232e-09 2.09919586163816e-10 8.337962014290315e-10 1.128309916998378e-09 9.17149656231019e-10 1.746090910729731e-10 2.116595082137006e-09 2.32068205306189e-09 2.907263570635345e-09 1.552264980316984e-09 1.533479425369841e-09 7.443038449752861e-10 2.623942114782313e-11 1.780634700676886e-09 1.938644543716775e-09 2.592115902709564e-09 4.700323134458878e-09 2.768492433291822e-09 8.167904545266032e-10 2.805798260758164e-09 1.684697616844771e-09 0:331 
-4.30850788977202e-09 2.447743176723972e-09 2.985393542891078e-09 1.260899380690387e-08 3.049741579838885e-09 1.384194199874751e-09 3.588592819215093e-09 7.69029357688696e-09 3.044326412641682e-09 3.790254521779034e-09 7.80495003304387e-09 5.897845652356053e-10 6.796163833729559e-09 2.976982084436581e-09 2.058885671442456e-09 6.991674624923724e-09 5.763365345854758e-09 1.027961773358301e-08 3.801666246708792e-09 7.904255339919781e-09 6.233059195667289e-09 6.764142389292287e-09 9.016112573574819e-09 6.258687081432117e-09 1.904064041131944e-09 2.901809956485796e-09 3.987029247278515e-09 6.873081743380517e-09 4.019038963192615e-10 1.577052557580414e-09 2.14611842049029e-09 1.747656057059078e-09 3.311908715554479e-10 4.111156375944647e-09 3.352846491570196e-09 5.526684489283905e-09 2.947578202589613e-09 2.929737140629347e-09 1.41683572693133e-09 5.362027717080027e-11 3.440524522858775e-09 3.69216431832924e-09 4.950972533897106e-09 8.937192500117328e-09 5.235162348417518e-09 1.563116608015272e-09 5.304369413876063e-09 3.211341941930729e-09 0:341 
-1.936671305752786e-10 5.918593157716156e-11 6.135337501936908e-11 4.772841741164816e-10 7.321020261695818e-11 3.314500223231163e-11 8.03721998563919e-11 1.879806583013983e-10 7.445549989311655e-11 8.230726120428188e-11 1.800996044285817e-10 1.473050224938374e-11 1.658343969030464e-10 7.428960898203281e-11 4.959408740929405e-11 1.791075730018505e-10 1.391098524447716e-10 2.504264471783032e-10 1.05098479788728e-10 1.901356455411634e-10 1.264460144124518e-10 1.653148711125354e-10 2.161319300246189e-10 1.177018758752734e-10 4.804080619544606e-11 6.639935000813679e-11 9.4352966335897e-11 1.695480758124888e-10 1.065077309671361e-11 3.309605532257398e-11 5.215468158339167e-11 4.641164483175808e-11 9.623227163298332e-12 1.16925220128368e-10 2.018635606340664e-10 1.351548950442853e-10 8.464074277413919e-11 9.019282753430651e-11 3.502856751616706e-11 2.47200754190653e-12 8.288960602486902e-11 8.99251870399803e-11 9.58655054967677e-11 2.192552859243989e-10 1.275993681276879e-10 2.626969477601732e-11 1.205453383130332e-10 7.783442992149821e-11 0:347 
-0 1.559327581292714e-11 2.277209698857985e-11 1.955170267550784e-10 1.6708956440124e-11 0 1.832318499010286e-11 4.105035871161776e-11 1.634941003012509e-11 1.527950003079616e-11 2.748808691735612e-11 0 3.628101484343995e-11 3.139447053875212e-11 8.289143176145107e-12 6.085423940853534e-12 2.956661535169111e-11 5.474464283450446e-11 5.670862028724673e-11 4.316537363777745e-11 8.738182185077436e-11 3.414261732864607e-11 4.646387744067977e-11 1.76271284725887e-11 5.346030001450172e-12 1.058063615171503e-11 2.179080112398787e-11 3.732290228608394e-11 1.649482333665867e-12 6.310942504417186e-12 2.958260203886586e-11 7.789023670381574e-12 1.54515798844587e-12 9.522779896260294e-13 0 3.206158246823293e-11 6.244253065737401e-11 1.485007459320574e-11 7.743314392322568e-12 0 1.964747303497081e-11 1.629847566075706e-11 0 4.854178086383549e-11 2.697454206380855e-11 6.859859661709625e-12 1.922748853068666e-11 1.578570627822049e-11 0:359 
-2.529248593493497e-10 4.351489515629957e-11 3.263995090890999e-10 1.053589350034427e-10 2.702874632524846e-11 1.08846264566186e-11 3.009780515680831e-11 8.590628173852364e-11 2.665840519346222e-11 8.658690668537097e-11 7.059194717181648e-11 4.815229832110548e-12 6.14286406416827e-11 2.924047070595909e-10 1.731355641577558e-11 6.071371178700704e-11 5.057392780945913e-11 8.989415204997877e-11 7.5030004810821e-11 2.456964351804722e-10 5.482419167214377e-11 5.973197377854748e-11 1.438059864734794e-10 5.394274947633115e-11 2.916180607694286e-10 2.562112428021865e-11 3.447107235621752e-11 6.05126157581084e-11 7.571635979133763e-11 1.907005239108261e-11 1.91058239460907e-11 1.457614130897998e-11 1.007670494115025e-10 3.446961776813522e-11 1.126101163710584e-10 4.872730341875334e-11 6.878965365012365e-11 2.635426671490738e-11 1.253704111576825e-11 1.674091604800096e-10 2.979457567548135e-11 2.035541747883911e-10 4.407669898614212e-11 7.858731255921736e-11 4.646931024313353e-11 2.134042741430353e-11 5.40156518194054e-11 2.760478704623763e-11 0:361 
-1.664633664530083e-10 1.158413056961466e-10 1.411783667302226e-10 6.585523817348413e-10 1.54320621675287e-10 6.309443973668497e-11 1.822729061296989e-10 3.92679127143511e-10 1.548040366328502e-10 2.193445704686921e-10 3.990284991294719e-10 3.119585907249105e-11 3.478180448125325e-10 1.437420331759817e-10 1.017193828366229e-10 3.376986493441638e-10 3.091895968411864e-10 5.243459453455183e-10 1.658971165016145e-10 4.028029693410267e-10 3.103604890942169e-10 3.449621722422442e-10 4.610166651708863e-10 4.339619401925819e-10 9.622005377559784e-11 1.495731895883519e-10 2.182738230941724e-10 3.517910112682283e-10 2.108378771319822e-11 7.836110255059794e-11 1.090192789275504e-10 8.080619915667154e-11 1.798648089796368e-11 2.510527182827658e-10 9.002919978620395e-10 2.82991105236471e-10 1.352195559123561e-10 1.340809891239515e-10 7.253674902747292e-11 3.552009343998747e-12 1.770387942832111e-10 1.895599031659964e-10 2.345272428394979e-10 4.566090122609067e-10 2.659878044835436e-10 5.845333561754236e-11 2.715251162477815e-10 1.63076707856217e-10 0:374 
-4.783641417763412e-10 2.899711293952124e-10 3.373923817981522e-10 1.867002355639015e-09 3.561182227414398e-10 1.681062638397831e-10 4.028085876207782e-10 9.092273725013738e-10 3.612938780562998e-10 4.385682133748914e-10 9.338429881872099e-10 6.940480089494009e-11 8.038949046222888e-10 3.4935660662394e-10 2.376894429682397e-10 8.182620618149835e-10 6.798816942670532e-10 1.212935818774079e-09 4.286784124159878e-10 9.311966868771128e-10 7.301449851251826e-10 8.180971612467674e-10 1.079680329357552e-09 7.175945525268693e-10 2.136525657717124e-10 3.420241353212634e-10 4.720981467191467e-10 8.128172338404396e-10 4.805383250927166e-11 1.829976758725292e-10 2.489140519639478e-10 2.010604613837911e-10 3.989052492592319e-11 5.160062788875406e-10 1.84216585593411e-10 6.528556417131951e-10 3.691641974541225e-10 3.407657442506929e-10 1.678326906954131e-10 9.195424499336417e-12 3.995439633348784e-10 4.399574594187788e-10 9.083273892893307e-10 1.057482677562354e-09 6.269009189975479e-10 1.801011106675004e-10 6.359091870326624e-10 3.769113291154716e-10 0:379 
-7.469108800382271e-10 5.215741378548594e-10 5.317628055555221e-10 1.824568948412748e-09 4.431520311617608e-10 4.673464583174868e-10 5.464009481455849e-10 1.096460502695691e-09 4.350519103331023e-10 6.49302377873044e-10 1.165482666891073e-09 1.536070182881328e-10 9.694966794236868e-10 4.608178437838916e-10 3.005503428377873e-10 1.017019829519792e-09 8.204502977465772e-10 1.589283291116424e-09 6.502302824946769e-10 1.128615880340442e-09 8.883954076941952e-10 9.664397310105637e-10 1.306963728654605e-09 8.923854965173054e-10 2.990993163730943e-10 4.280994070961831e-10 5.725030512742105e-10 9.808538629109112e-10 6.60846495080554e-11 3.291964653722491e-10 3.129151942037981e-10 2.487432859259525e-10 1.199134176847888e-10 6.31893597513627e-10 5.763064106079409e-10 7.885357808251657e-10 4.217615823276932e-10 5.624688133117038e-10 1.974918658831218e-10 1.377601635704798e-11 4.843601493474745e-10 5.871822616452475e-10 7.029291386566878e-10 1.275448745021527e-09 7.48379122451158e-10 3.718454752509999e-10 7.556446371574463e-10 4.614349971341014e-10 0:381 
-8.767305636288752e-10 6.009883228547981e-10 5.478584469723507e-10 1.83790569594023e-09 4.187445196000329e-10 4.946580887963925e-10 4.804229234304942e-10 1.075050491433527e-09 4.299704947998672e-10 5.195351627640649e-10 1.078629063779815e-09 1.127748714091516e-10 9.4749302468688e-10 4.35549602180215e-10 3.26505081969669e-10 1.128674924633331e-09 8.022504196538688e-10 1.467868572111478e-09 8.169686192162601e-10 1.092705374364475e-09 8.639952356490211e-10 9.42606959950863e-10 1.252179419694548e-09 8.303025659024939e-10 2.630337386116063e-10 4.517611372778647e-10 5.407816181879937e-10 9.594033434817736e-10 5.379476553731583e-11 3.123461184039742e-10 2.992537205204392e-10 3.440649003203847e-10 4.303393230529094e-11 5.758985638355702e-10 1.259546626639062e-09 7.704805024861308e-10 3.770344413830741e-10 6.116968893707223e-10 1.956220162818839e-10 1.427089279648481e-12 4.714586245428808e-10 5.115299032503957e-10 6.68868472945811e-10 1.246465872271734e-09 7.457226320595967e-10 2.997901417833457e-10 7.43252906794623e-10 4.532037253220479e-10 0:390 
-0 0 0 0 0 0 0 0 0 0 0 0 0 0 0 0 0 0 0 0 0 0 0 0 0 0 0 0 0 0 0 0 0 0 4.76685795199694e-11 0 0 2.956482625695164e-12 0 0 0 0 0 0 0 0 0 0 0:400 
-4.775651348951528e-10 -7.580185593756235e-10 5.317313494828139e-10 7.386575400343542e-10 4.254308010056402e-10 3.354191059197072e-10 4.64594777419492e-10 6.424950295491179e-10 4.275940614017088e-10 4.825233875495231e-10 6.436326125472051e-10 2.255274181646139e-10 6.175464706499154e-10 5.194039954878267e-10 4.115171680369272e-10 6.22755443204823e-10 5.78484499963854e-10 7.030102113332706e-10 6.825557721892914e-10 6.499448670688969e-10 5.969558089903695e-10 6.149661237623225e-10 6.680142537268588e-10 5.98417002427312e-10 3.0595680529523e-10 5.421304354090264e-10 4.913941553927469e-10 6.185132787406994e-10 1.070087380157931e-10 2.419362256510097e-10 3.48313662335902e-10 2.942896989968227e-10 2.119798178213816e-10 4.965629399557438e-10 4.885797195863919e-10 5.693083540949766e-10 4.258535907739389e-10 4.466101788000055e-10 2.706405684964311e-10 1.035119866558041e-11 4.541484651264779e-10 4.72661708086746e-10 5.4438991395994e-10 6.733386725621657e-10 5.562927373846589e-10 2.785747036212514e-10 5.629323884438548e-10 4.378964354480093e-10 0:3 
-5.56292692603095e-10 -7.203153744689011e-10 4.441649610443798e-10 7.816333087493093e-10 4.525579171296863e-10 3.923735331035129e-10 4.857540259269307e-10 6.839654374821344e-10 4.545197992667625e-10 5.123603739772593e-10 6.914271581416021e-10 1.059800879976151e-10 6.557181138766191e-10 3.979003034076418e-10 3.487813984760675e-10 6.619745821274986e-10 6.148421304304477e-10 7.474519986042669e-10 4.481742170725499e-10 6.877343528699097e-10 6.342603018090575e-10 6.533648790911716e-10 7.047517178324661e-10 6.355631086722086e-10 4.124770579925982e-10 4.352686334608492e-10 5.226001062256491e-10 6.568963381063848e-10 8.93899729020547e-11 3.502603160687298e-10 3.691854989539008e-10 3.310083063908036e-10 0 5.28532446021169e-10 5.182359832667736e-10 6.046768573467206e-10 4.524124487406169e-10 4.436743223695641e-10 2.765275964663187e-10 1.292486078677048e-11 4.824077436401354e-10 5.036484381645035e-10 5.782257687787109e-10 7.160084363195549e-10 5.914113872565843e-10 2.928522169034432e-10 5.998125435717743e-10 5.019122549520635e-10 0:35 
-1.449453993399576e-09 -1.996571269813005e-09 1.512860719273322e-09 2.048348482733403e-09 1.172266285182135e-09 9.575787509340159e-10 1.276899395716213e-09 1.766294664418571e-09 1.176970886701165e-09 1.328276642383722e-09 1.784198723118455e-09 4.296472427879634e-10 1.693472952347529e-09 1.180551687968801e-09 1.036256534265254e-09 1.716118883709276e-09 1.591176919628112e-09 1.931913421444825e-09 1.511995744814173e-09 1.782698011063646e-09 1.641988100212512e-09 1.692754699538122e-09 1.858205745970524e-09 1.646966070245164e-09 9.032749789131898e-10 1.155189300345665e-09 1.354193658472408e-09 1.701889668796741e-09 2.52654323975113e-10 8.376908565044437e-10 9.558925135305333e-10 8.5137836626495e-10 1.683308980182981e-10 1.375683894664355e-09 1.364344893079252e-09 1.566627716228174e-09 1.171594555359126e-09 1.223992999957025e-09 7.38069301259433e-10 4.1825261724536e-11 1.248733770465303e-09 1.306558331142106e-09 1.496039865277179e-09 1.853706972914023e-09 1.534882929791644e-09 8.470193092218787e-10 1.546231635257129e-09 1.202338283346877e-09 0:46 
-2.039618696276636e-09 -2.336812324165651e-09 1.424818823263412e-09 2.338137888018512e-09 1.349457631424274e-09 8.477045401662583e-10 1.512287646031472e-09 2.036153463698281e-09 1.35643958863198e-09 1.530672775488477e-09 2.083418438901171e-09 4.715326417490732e-10 1.951598566610726e-09 1.386198213188737e-09 1.148185148741592e-09 1.983840621674333e-09 1.83223000398854e-09 2.239448473796974e-09 1.653368065762911e-09 2.055123557348329e-09 1.891126311855931e-09 1.94818527601642e-09 2.156795135988672e-09 1.901133277397051e-09 1.028984293567314e-09 1.416334712514708e-09 1.558550056388657e-09 1.958835727592039e-09 3.056585093483953e-10 1.094588093340424e-09 1.126296031736085e-09 9.55706886436716e-10 3.177768488691432e-10 1.58493280958101e-09 1.555448886978003e-09 1.803014080079008e-09 1.348382761127238e-09 1.456477111792346e-09 8.38521434608074e-10 5.520443203508524e-11 1.437531821222594e-09 1.507096601377137e-09 1.723710990589881e-09 2.133144402411884e-09 1.76705779211141e-09 9.376751764898035e-10 1.775715973230548e-09 1.398702310286996e-09 0:60 
-1.209524086302675e-09 -1.542295549911645e-09 9.816196360013306e-10 1.398519493299431e-09 8.062422008632752e-10 4.333695331587513e-10 9.345736294822503e-10 1.21556990572323e-09 8.078187637467519e-10 9.137241891317814e-10 1.233779301340285e-09 4.689429048502938e-10 1.164053995403466e-09 9.342351702789951e-10 7.305879990696305e-10 1.17650511042502e-09 1.092943402896228e-09 1.325959655356079e-09 1.406957350660908e-09 1.22748185023944e-09 1.127619420243409e-09 1.1620580582958e-09 1.359872066579559e-09 1.131297871189104e-09 6.164829205443845e-10 7.972057265057261e-10 9.296227306387789e-10 1.168462918963518e-09 2.197230165679803e-10 5.029404383918543e-10 6.558339458173172e-10 5.712199704265701e-10 6.546245375349431e-10 9.386327295336011e-10 9.25596248520652e-10 1.075595708282022e-09 8.045027204788713e-10 8.956719277210102e-10 5.093553340751789e-10 5.223623970429407e-11 8.573743882963095e-10 9.007973437661052e-10 1.027166232790345e-09 1.273227203595993e-09 1.052858537429315e-09 5.640527416578544e-10 1.058522642608625e-09 8.311430121957933e-10 0:126 
-1.207659984804262e-09 -1.655970816620346e-09 1.042188481803364e-09 1.70980377314888e-09 9.865247115843165e-10 5.471103737931343e-10 1.064302640146332e-09 1.496199523470306e-09 9.903504583615121e-10 1.119612095483064e-09 1.49858958280384e-09 2.544191771093026e-10 1.4391032380852e-09 1.216927368236238e-09 7.770854544681846e-10 1.443522901179339e-09 1.340071767745626e-09 1.65087143529579e-09 1.118876565050997e-09 1.51520939344106e-09 1.382752672820314e-09 1.424301300264236e-09 1.568813091018075e-09 1.386387737957863e-09 8.189764477640717e-10 9.638388240216353e-10 1.13981511382044e-09 1.431845949354869e-09 2.150862618708429e-10 6.298775875280554e-10 8.044779664261937e-10 6.969168824679072e-10 1.216775671363245e-10 1.151149937085893e-09 1.137777085079107e-09 1.317748158384164e-09 9.865901688448819e-10 1.089125576896438e-09 6.139077544522523e-10 4.099694750106104e-11 1.050998032675572e-09 1.100701817396047e-09 1.260667729893843e-09 1.559835053922903e-09 1.289608183300798e-09 6.93864804699785e-10 1.298304874807243e-09 1.100869178568705e-09 0:152 
-3.604533854135743e-09 -4.343150534619069e-09 2.80137945090952e-09 4.635280918114678e-09 2.663821599265649e-09 1.705098236409185e-09 2.917363967232894e-09 4.017344976698404e-09 2.673794117865485e-09 3.02032425885955e-09 4.111615953674388e-09 8.123487776944884e-10 3.851636476429969e-09 2.711838907214049e-09 2.248179035244716e-09 3.908291921307964e-09 3.617095544153498e-09 4.400055314700703e-09 3.817310715509753e-09 4.053521211124921e-09 3.731090562766469e-09 3.84436167684207e-09 4.221155789393176e-09 3.741604082197782e-09 2.06004409302463e-09 2.650849625448651e-09 3.074656865765988e-09 3.866669832083985e-09 5.805698403148305e-10 2.918314826926063e-09 2.171614175725428e-09 1.964398483855172e-09 3.798353125676612e-10 3.107762101835437e-09 3.099260935579582e-09 3.557666003423109e-09 2.661718191705071e-09 3.290943564130688e-09 1.654764086969081e-09 9.406744926112988e-11 2.837444203377876e-09 2.973963496548828e-09 3.401291754834113e-09 4.210947337498858e-09 3.482295144807439e-09 1.910882476386712e-09 3.515787822218755e-09 2.759191851452834e-09 0:158 
-1.007586854788536e-09 -1.342501461128014e-09 8.536185552439304e-10 1.204643937237567e-09 6.924669616430339e-10 5.551402017813722e-10 8.011885529964736e-10 1.043723579822514e-09 6.946493089302362e-10 7.840666850993525e-10 1.057001530993212e-09 3.539524906348297e-10 1.000995551197307e-09 8.007958427015523e-10 7.092655058326673e-10 1.014316861216571e-09 9.401429705163549e-10 1.140551624582686e-09 1.288721762172005e-09 1.053690267430979e-09 9.696529669943355e-10 9.989277057451915e-10 1.114128510352804e-09 9.720186411338283e-10 5.883108750825027e-10 6.831194713510857e-10 7.987923827271538e-10 1.004985984159394e-09 1.737537049261166e-10 4.96877838943642e-10 5.656013708814121e-10 5.142045586950044e-10 4.340525358204638e-10 8.146401412867452e-10 8.003913401418896e-10 9.242200419681624e-10 6.920654359149351e-10 9.083848280176378e-10 4.255239111742199e-10 1.790372761230729e-11 7.380586438363569e-10 7.689841697586771e-10 8.910440020107504e-10 1.094264684437622e-09 9.040193689449574e-10 4.834989315355434e-10 9.159283237531316e-10 7.166669196948334e-10 0:210 
-1.291966287746962e-09 -1.739737591494104e-09 1.055312093859532e-09 1.700987050845086e-09 9.797158753375742e-10 6.61876003491503e-10 1.079390003202582e-09 1.477461440443684e-09 9.840928047121402e-10 1.110780859038749e-09 1.536200714937184e-09 3.651184132840337e-10 1.417092762715352e-09 9.929173651920315e-10 1.065869678776883e-09 1.432919793565099e-09 1.32974593608338e-09 1.615179630314644e-09 1.729610210842698e-09 1.491092822136398e-09 1.371857532852339e-09 1.415094777830684e-09 1.552233330852581e-09 1.376999071959747e-09 7.240965927104398e-10 1.097683885985968e-09 1.131183355677562e-09 1.421382128966252e-09 2.503441165760921e-10 1.166092247861736e-09 7.997912358424638e-10 8.065050553628277e-10 2.723788581961218e-10 1.143360381811085e-09 1.124200070828981e-09 1.308875897146953e-09 9.794038330702271e-10 1.021431201695986e-09 6.206678605150711e-10 3.182985536639642e-11 1.044437492987105e-09 1.090253509836961e-09 1.251721163773852e-09 1.549965301746278e-09 1.281106862591348e-09 6.595846967300343e-10 1.291791625502523e-09 1.015131877410257e-09 0:238 
-1.401053117977798e-09 -1.577048551651642e-09 1.110336499136319e-09 1.63875930440083e-09 9.397344685583558e-10 6.975588631731553e-10 1.026938111794653e-09 1.419993368368612e-09 9.429321444480167e-10 1.067821308604365e-09 1.446834952324766e-09 2.588630292866326e-10 1.360301983040484e-09 9.959948032155423e-10 8.352558201400806e-10 1.388896138347459e-09 1.276686558929449e-09 1.552090680834478e-09 1.590001416005011e-09 1.438800091019483e-09 1.317759902691854e-09 1.356132143907931e-09 1.551662723788173e-09 1.321041999095982e-09 9.219294083409699e-10 9.173407853137179e-10 1.085352229886196e-09 1.363550090712928e-09 2.252963957773444e-10 1.126282542669305e-09 7.700771668810989e-10 8.989875125191835e-10 4.580862265389543e-10 1.102174223896604e-09 1.096661522719733e-09 1.256007204155506e-09 9.400893944657059e-10 1.109999746611616e-09 5.783073092094281e-10 9.726606571895301e-11 1.000995106183419e-09 1.067660150215911e-09 1.198806439111515e-09 1.486067828699291e-09 1.235538420624119e-09 6.92216607760121e-10 1.236644246755173e-09 9.730113371032099e-10 0:312 
-2.871259702898604e-09 -3.73941249650836e-09 2.369438965337964e-09 3.962111773458141e-09 2.288780944041104e-09 1.449350848789035e-09 2.530638727300121e-09 3.451307175191814e-09 2.297165111271315e-09 2.59951787831061e-09 3.502996107683235e-09 7.038918862148169e-10 3.309733827487667e-09 2.331288335381628e-09 1.855077945869506e-09 3.345223627987838e-09 3.105190115771147e-09 3.818926238057991e-09 2.711856563314675e-09 3.484200154781002e-09 3.207308511808284e-09 3.302594087466259e-09 3.631993657244324e-09 3.21387889664331e-09 1.744757355036713e-09 2.258151983709022e-09 2.641387196047306e-09 3.320629467220821e-09 4.984969001418236e-10 1.545792353241597e-09 1.866763598596823e-09 1.634432330941722e-09 3.375051151083092e-10 2.669573736282139e-09 2.642493344872006e-09 3.056173979923059e-09 2.286506345744276e-09 2.452225246499895e-09 1.421249044809689e-09 8.85465662660586e-11 2.436677763098627e-09 2.585864128233928e-09 2.922023535282576e-09 3.616563323321261e-09 2.996702740781253e-09 1.644179132592173e-09 3.010764173160668e-09 2.372741929410922e-09 0:343 
-0 -0 0 0 0 0 0 0 0 0 0 1.847507166390901e-10 0 0 0 0 0 0 9.56271661232241e-10 0 0 0 0 0 0 0 0 0 0 2.247946343972599e-11 0 0 0 0 0 0 0 7.724407901988562e-11 0 0 0 0 0 0 0 0 0 0 0:360 
-1.528848154558283e-09 -2.279206209109509e-09 1.383584643586772e-09 2.193183204343513e-09 1.258865656947737e-09 1.01810717106054e-09 1.360473279992427e-09 1.900578863643408e-09 1.266936528401808e-09 1.43094975993728e-09 1.898994825559132e-09 4.531136108435832e-10 1.822529080890027e-09 1.286319710658904e-09 9.529915142873525e-10 1.841222606211821e-09 1.711617150601277e-09 2.076060274483739e-09 1.668414592569728e-09 1.920267550833253e-09 1.767526682607266e-09 1.81867237529932e-09 1.99662200766205e-09 1.771395365530316e-09 9.831242615262504e-10 1.192435837277548e-09 1.45577224374449e-09 1.829520040486129e-09 2.462201947075517e-10 9.850941275664042e-10 1.028359760285611e-09 9.652858129428996e-10 7.034349994757609e-11 1.468434444007488e-09 1.451010834709654e-09 1.683739320203305e-09 1.259360243599837e-09 1.255846839242062e-09 8.265006480591718e-10 4.763382095998963e-11 1.340895881435723e-09 1.407370031284509e-09 1.607167635377029e-09 1.991877396927558e-09 1.648390156189271e-09 8.888248258453245e-10 1.66161170138838e-09 1.292231783471776e-09 0:404 
-6.327764655973243e-10 -8.645424602330257e-10 -4.629945554482365e-10 9.621986120324535e-10 5.147812245556027e-10 4.472838586542523e-10 6.63329451062749e-10 8.184491460271171e-10 5.174830289158541e-10 5.890418260334182e-10 8.269539863024886e-10 7.979550915533288e-11 7.788578329865309e-10 5.107135099199318e-10 4.062320925710254e-10 7.937353178549454e-10 7.252756091481821e-10 9.060738332846019e-10 5.707211223986627e-10 8.202087285801362e-10 7.571517929317883e-10 7.781537116647493e-10 8.599752212166828e-10 7.543228154155886e-10 3.573807511316473e-10 4.989032806580042e-10 6.049499991328464e-10 7.834608327827392e-10 9.192980276002179e-11 3.818244306678852e-10 4.150394241141154e-10 3.5871953878985e-10 1.407749871895108e-10 6.12697529312881e-10 5.980078100554596e-10 7.119280744307053e-10 5.099099837213204e-10 5.221239799340632e-10 3.077424496555028e-10 0 5.523858652671236e-10 6.138847948763957e-10 6.770380785873307e-10 8.646821361011055e-10 6.951636641800549e-10 3.094782470112455e-10 6.998522495517133e-10 5.348941381075848e-10 0:4 
-9.590369317961818e-10 -1.324243352844953e-09 -6.639862722323605e-10 1.466258436411108e-09 7.783588012288659e-10 4.807329874061017e-10 8.791877049512151e-10 1.237529206143696e-09 7.834742523485214e-10 8.94496753023226e-10 1.250398960850308e-09 1.987187380782484e-10 1.179810842760589e-09 1.072331631018861e-09 2.848529455897365e-09 1.194712806728696e-09 1.09664215769807e-09 1.373947938521126e-09 1.199478349635733e-09 1.250675363182236e-09 1.137850718306622e-09 1.176365030580209e-09 1.303058085092669e-09 1.140513847621724e-09 5.685198585837444e-10 7.698718006863073e-10 9.134788905289869e-10 1.183349491496402e-09 1.247835696961619e-10 6.178640269957423e-10 6.224275641059702e-10 5.424074605227776e-10 9.858136744670242e-11 9.262139736750761e-10 9.191313284443608e-10 1.076740685604302e-09 7.776754079012734e-10 8.116368102412466e-10 4.656116316712053e-10 0 8.342218577992164e-10 8.701723332384275e-10 1.023050607097382e-09 1.306817779787715e-09 1.05203723552696e-09 8.352949407827582e-10 1.058446369890126e-09 8.036898028265374e-10 0:23 
-1.714575813088183e-09 -2.324152863159484e-09 -1.272381158466038e-09 2.568832887465679e-09 1.373547352789406e-09 7.903855624713226e-10 1.843317916469522e-09 2.185021855552492e-09 1.380292957591677e-09 1.579698379431607e-09 2.197913831953548e-09 4.877806330519375e-10 2.082021877890843e-09 1.505240351407913e-09 1.189041099337329e-09 2.113158363140344e-09 1.936033276780664e-09 2.418555744144024e-09 1.634025192414001e-09 2.211028690078711e-09 2.004703520631313e-09 2.077105178061887e-09 2.31234309740464e-09 2.014536443006182e-09 1.026040817790488e-09 1.407722502413882e-09 1.611520826911047e-09 2.090313256811311e-09 2.668762587323853e-10 8.975980522966133e-10 1.099855500051031e-09 9.571658187205289e-10 2.385811896702636e-10 1.633407339290232e-09 1.603520134366688e-09 1.901271162601602e-09 1.37343773974988e-09 1.404554674958204e-09 8.22627306230881e-10 2.190371613321688e-11 1.474789999732787e-09 1.552497138422676e-09 1.80564513949536e-09 2.309016326647272e-09 1.854694436984568e-09 9.051845848948787e-10 1.869710974771469e-09 1.427956492969762e-09 0:43 
-1.471904014978241e-09 -2.01675246751902e-09 -1.232119438597579e-09 2.197085612929588e-09 1.175296811553046e-09 7.149699784971662e-10 1.30180335530803e-09 1.870082154833418e-09 1.181091749659226e-09 1.351296487146486e-09 1.881344369267796e-09 3.328754745961201e-10 1.779871781528728e-09 1.282660910575364e-09 1.436935578961814e-09 1.801719107793877e-09 1.656554009671275e-09 2.068662030281181e-09 1.651981597919473e-09 1.891474711583662e-09 1.718255053640834e-09 1.777105212594357e-09 1.988592063141199e-09 1.722452461961892e-09 8.746825601322769e-10 1.197393532628407e-09 1.378877428209584e-09 1.788121731599221e-09 3.222364353476547e-10 7.999284124131272e-10 9.437325115174159e-10 7.878892365559714e-10 2.978519323824754e-10 1.396226940771236e-09 1.371428529918094e-09 1.625071751284926e-09 1.1750807605711e-09 1.215731846063729e-09 7.123935649601832e-10 2.557948783470735e-11 1.261331847122022e-09 1.330373669070279e-09 1.545671104470516e-09 1.974693176032295e-09 1.586469058094846e-09 7.526219231023237e-10 1.597840420689441e-09 1.220143474173831e-09 0:56 
-9.300805305440423e-11 -1.338318214008512e-10 -1.126123203621364e-10 1.310264252977909e-10 7.029864156684975e-11 3.418689043861776e-11 9.061790479696192e-11 1.126019088283364e-10 7.063137563355662e-11 8.070090553040889e-11 1.130401035377405e-10 0 1.092609993735628e-10 7.343975968549609e-11 2.67380294080354e-11 1.075043861164042e-10 9.900501398405191e-11 1.280850197065687e-10 7.587546262781888e-11 1.137940971784343e-10 1.02638841645848e-10 1.061852046691197e-10 1.221365386775352e-10 1.032779945919427e-10 7.333016953845973e-11 9.392020767217942e-11 8.273472275735753e-11 1.068709880802897e-10 2.398652419758215e-10 4.156147793078148e-11 5.653362936031162e-11 4.956140518018572e-11 1.43239275605096e-11 8.342350398181822e-11 8.134830729082713e-11 9.717941727206786e-11 7.045798783978187e-11 8.123200984283841e-11 4.124712858366131e-11 2.272322888477755e-12 7.55744115488787e-11 7.919989682564852e-11 9.270261525543762e-11 1.180678934836561e-10 9.496861130583163e-11 4.579778756274098e-11 9.534096013206002e-11 8.525902255882801e-11 0:75 
-2.589701779460339e-09 -3.549644718132689e-09 -1.957578204757105e-09 3.887741078110632e-09 2.072002238731755e-09 1.592444411651256e-09 2.34844758481032e-09 3.296761372961381e-09 2.082409435536816e-09 2.383109403457479e-09 3.309486234159153e-09 1.628261011059545e-09 3.138713347397321e-09 2.112366682131786e-09 1.983930856462831e-09 3.184494119661391e-09 2.922162124960469e-09 3.650478509727593e-09 3.081467429136792e-09 3.333341397515794e-09 3.02946214087396e-09 3.132474002716886e-09 3.49395087988353e-09 3.036770619004784e-09 1.538207688734603e-09 2.057500503296647e-09 2.431213161533483e-09 3.152221772512389e-09 7.541880570434327e-10 1.40337487934407e-09 1.658678596269033e-09 1.621689091968194e-09 3.393586646096146e-10 2.462120186106678e-09 2.416951644654707e-09 2.868018194002944e-09 2.071260246485601e-09 2.121187251507067e-09 1.238593312562604e-09 3.851146986163352e-11 2.222788379245905e-09 2.344290103541981e-09 2.722988734097094e-09 3.484148670474278e-09 2.795712575409976e-09 1.363355879038937e-09 2.821597068273256e-09 2.150967075600926e-09 0:102 
-1.655833984051109e-09 -2.259391413127028e-09 -1.211638501193114e-09 2.489731004360544e-09 1.331534930092679e-09 7.69795784020864e-10 1.474679303422414e-09 2.117679447458469e-09 1.337394422407587e-09 1.530674356291645e-09 2.126414729926367e-09 1.686982445690571e-10 2.016027087391994e-09 1.327725006894585e-09 1.079847714109266e-09 2.04258750664842e-09 1.875631378100277e-09 2.342709030181e-09 1.637581398451552e-09 2.141759984699242e-09 1.946153740388996e-09 2.0114542477498e-09 2.247356398527832e-09 1.950272597640832e-09 9.949439021363038e-10 1.32565411400537e-09 1.56203038086994e-09 2.025834329092078e-09 3.410270632621331e-10 8.782077835693619e-10 1.067052335825268e-09 9.19984776289978e-10 2.170721137966924e-10 1.587767084899736e-09 1.553407275479502e-09 1.841695820940176e-09 1.330580978473802e-09 1.358369334048724e-09 7.968515317246995e-10 2.841961443759896e-11 1.427872522295503e-09 1.505218156942808e-09 1.749414910209993e-09 2.237105848756924e-09 1.796892712891743e-09 8.627009374983805e-10 1.816049675325965e-09 1.382868219260779e-09 0:103 
-3.481677347310992e-10 -5.172468602895205e-10 -2.568755504550165e-10 5.015649144258345e-10 2.67898501027407e-10 1.776771292273091e-10 3.206745861565122e-10 4.291369626636514e-10 2.68947210150479e-10 3.142389203635249e-10 4.235723636372322e-10 8.316080471288365e-11 4.05516116894657e-10 7.543277332904359e-10 4.046799051608754e-10 4.096035707273399e-10 3.772918086817194e-10 4.725262891659005e-10 6.812694239647446e-10 4.491020650497579e-10 3.902054018187842e-10 4.043828109939725e-10 5.050557399699101e-10 3.919542056359164e-10 2.791585361189889e-10 2.608103134358842e-10 3.140556916715151e-10 4.075161845935632e-10 1.311758516452772e-10 2.010123416971273e-10 2.143720955680112e-10 1.876456304490766e-10 8.334823798349243e-11 3.176590727158629e-10 3.127619434541648e-10 3.700557313934262e-10 2.646129321633951e-10 2.629308874895456e-10 1.598579402735495e-10 1.786013454783522e-10 2.868269978263828e-10 4.250480780254716e-10 3.516688438843633e-10 4.499112044426219e-10 3.612592612518098e-10 4.709552826394432e-10 3.636992345733448e-10 2.783096951268667e-10 0:114 
-4.584105319207772e-10 -7.407016762505279e-10 -3.541504259808725e-10 6.309608637405005e-10 3.352314998613094e-10 2.971239670054532e-10 4.847840951933753e-10 5.344902654185065e-10 3.367350967742531e-10 3.903046972668944e-10 5.419262595787816e-10 8.860554243148376e-11 5.074127130027574e-10 6.650767983581368e-10 2.468295180402076e-10 5.136229716104995e-10 4.718640625506264e-10 5.897367636283945e-10 5.012859514032856e-10 5.554576892613471e-10 4.877689655561627e-10 5.062388628642472e-10 5.806105036117325e-10 4.909312296111509e-10 3.280029579088422e-10 3.329776413833317e-10 3.929545360215278e-10 5.093619228712744e-10 1.246303708387112e-10 2.581029861316822e-10 2.674782577267043e-10 2.372758594366821e-10 2.260737462716284e-10 3.989723385915898e-10 4.270806172482297e-10 4.634955884726187e-10 3.756430485428979e-10 3.888983041817659e-10 2.003556343487117e-10 3.328814746651029e-11 3.605636579489369e-10 4.61089137272613e-10 4.401306001632392e-10 5.625478465594927e-10 4.521918455255259e-10 2.551101290491918e-10 4.564710079119298e-10 3.485358258453928e-10 0:129 
-6.190708289089968e-10 -8.502280427165063e-10 -8.639817005484858e-10 9.159194995723381e-10 4.895703207853728e-10 2.95857423314735e-10 5.68910376500272e-10 7.798517190016137e-10 4.901873858928435e-10 5.629754227710736e-10 7.840136129924646e-10 3.527846540564499e-10 7.409842653140752e-10 6.620601964033739e-10 5.224156695615278e-10 7.506090901201658e-10 6.913858876021285e-10 8.616121919059618e-10 5.184516040699752e-10 7.878422752949569e-10 7.153591223605103e-10 7.395986750371726e-10 8.29986672306111e-10 7.171024607421397e-10 3.980266110620244e-10 4.937188217268807e-10 5.740820566251622e-10 7.450358512505037e-10 0 3.072417062459419e-10 3.928808903684224e-10 3.484811817076268e-10 5.499858198793856e-11 5.79235091203721e-10 5.684307671671893e-10 6.771891258341292e-10 4.895298086119435e-10 5.051037108790215e-10 2.891015939758802e-10 1.214869655230404e-11 5.257174567303402e-10 5.569929777976533e-10 6.433680385678761e-10 8.225930495137427e-10 6.587443931835628e-10 1.915043265705041e-10 6.637697874089852e-10 5.268239971856963e-10 0:258 
-9.420920552947321e-10 -1.291442672197276e-09 -6.828544893740466e-10 1.41656172719835e-09 7.559236694640392e-10 4.540916549686091e-10 9.899985041462501e-10 1.201650342206717e-09 7.5828761853479e-10 8.683493637404514e-10 1.20377922414381e-09 4.240715382269072e-10 1.142855111155726e-09 8.507916137033657e-10 3.892835224109624e-09 1.157623856797265e-09 1.063659487400501e-09 1.331090222407912e-09 1.060926655974756e-09 1.215009525726803e-09 1.10380938433456e-09 1.141224475781512e-09 1.271879210808033e-09 1.106306418984044e-09 5.605593073270946e-10 7.924440922085532e-10 8.859344425139751e-10 1.148889165777607e-09 1.198762593267912e-10 6.110924256312033e-10 6.06355190641186e-10 5.529098143556568e-10 1.191508307895368e-10 8.971275955567132e-10 8.872227177902901e-10 1.044076392486273e-09 7.553742812256203e-10 7.884409000845632e-10 4.51346719823716e-10 1.578065035622049e-11 8.094121034791979e-10 8.563705082236605e-10 9.923750042144105e-10 1.269380925766258e-09 1.018229347052529e-09 5.525816984842951e-10 1.0271543441039e-09 7.848336066851902e-10 0:279 
-6.648854152791219e-10 -9.752042520760354e-10 -4.751215807763052e-10 9.315508282836494e-10 4.985238953190249e-10 2.866960936441047e-10 5.34989105776152e-10 7.989350418419903e-10 5.004539974225854e-10 5.902497058399517e-10 8.165382753272857e-10 7.530039926964641e-11 7.563415532424744e-10 5.523521060662228e-10 3.927235769479026e-10 7.656219359161265e-10 7.02038945873391e-10 8.768587995736678e-10 6.026837082965895e-10 8.449118558781633e-10 7.354829833024515e-10 7.531269925952151e-10 8.811822934455583e-10 7.308382543953057e-10 5.073161981062975e-10 4.887422182330705e-10 5.847908827821384e-10 7.581158210162229e-10 1.290422129873493e-10 3.222908362534979e-10 3.997939704879438e-10 3.564363854811921e-10 1.457747483346206e-10 5.928512603676329e-10 5.756682654291312e-10 6.894263651723832e-10 5.081833059993231e-10 5.167265494531612e-10 2.985257555012873e-10 1.695710725309776e-10 5.348748735137809e-10 6.907797929351092e-10 6.552933049374394e-10 8.374605140691402e-10 6.722616793295844e-10 2.967908789925637e-10 6.78482993914251e-10 5.176138606048102e-10 0:283 
-2.341167773157048e-09 -3.393233346694538e-09 -1.856512902032126e-09 3.51230709040787e-09 1.872561579444961e-09 1.215459500277042e-09 2.037044184055498e-09 2.979154426048412e-09 1.881661329657901e-09 2.153063839181091e-09 2.99106418206977e-09 3.19435081283204e-10 2.835345393797142e-09 1.918756915888799e-09 1.571417589673161e-09 2.898919181390217e-09 2.637640204538192e-09 3.29700619683797e-09 2.37367864461592e-09 3.011749262519964e-09 2.736548257509158e-09 2.829426022333638e-09 3.161154491713802e-09 2.743063753659933e-09 1.401587034922843e-09 1.833336458103543e-09 2.199185630718413e-09 2.847334800828684e-09 2.540050675808683e-10 1.278916291009041e-09 1.49995353940904e-09 1.310268507743786e-09 3.115698046190524e-10 2.301435080230241e-09 2.274231342161047e-09 2.589934726140968e-09 1.87282709755645e-09 1.947744148532054e-09 1.192842990923316e-09 3.711031285822377e-11 2.00962443999041e-09 2.121566549961402e-09 2.460983640225332e-09 3.14449400622885e-09 2.525527415008194e-09 1.401766725463632e-09 2.569013923619445e-09 1.945460197823264e-09 0:292 
-1.362563890451381e-09 -1.889219760988013e-09 -1.007504112591836e-09 2.049764527740014e-09 1.095340773488969e-09 8.804889162364792e-10 1.253032916980487e-09 1.740593310376319e-09 1.099333285570783e-09 1.259521279816131e-09 1.761373814361053e-09 1.819761720499315e-10 1.65689198091165e-09 1.168547306495083e-09 9.03744205277456e-10 1.684251075466338e-09 1.542675884982285e-09 1.929461721242775e-09 1.331092481219377e-09 1.758833947709001e-09 1.609190440377276e-09 1.654005235160033e-09 1.859913665701268e-09 1.603134352662634e-09 8.117703681924035e-10 1.053123617958835e-09 1.2850458400794e-09 1.664444592147188e-09 1.326171413855896e-10 7.963119633843423e-10 8.787204513906702e-10 7.678695901015006e-10 1.545190503723493e-10 1.303802487066759e-09 1.278222260246852e-09 1.51377374790247e-09 1.092861836579832e-09 1.11848099668447e-09 6.551237825932638e-10 1.234484648075127e-11 1.174184407332737e-09 1.228540457552546e-09 1.438033010733556e-09 1.838282515257839e-09 1.476219658471213e-09 7.708224054202949e-10 1.488588814123802e-09 1.137447473380578e-09 0:303 
-2.377658732757673e-09 -3.274575264561673e-09 -1.822586732081912e-09 3.563627478736039e-09 1.897798493719025e-09 1.234843156661641e-09 2.234614858335029e-09 3.017621145249156e-09 1.906098970804359e-09 2.18138099516254e-09 3.066805796780192e-09 6.170675258575191e-10 2.873338324873575e-09 2.382225229582824e-09 1.583205230920178e-09 2.911639882720412e-09 2.674169535188281e-09 3.34660305627822e-09 2.701421808052205e-09 3.05163451415307e-09 2.80997917479534e-09 2.867276476853168e-09 3.205255349190583e-09 2.780034217530469e-09 1.415094303112848e-09 1.922069071720189e-09 2.228618611520874e-09 2.886877759075133e-09 3.4543609758744e-10 1.307456253887418e-09 1.541999427118278e-09 1.334513283479029e-09 3.607522254207789e-10 2.255659115854176e-09 2.221443882448334e-09 2.625044484298418e-09 1.89690894096976e-09 2.135361833700761e-09 1.134506254133703e-09 4.18122793880857e-11 2.037057576029476e-09 2.178778237105079e-09 2.494515275450067e-09 3.187290546512557e-09 2.559507772901776e-09 1.312417316445029e-09 2.5804491502517e-09 1.971730949637601e-09 0:329 
-5.501707075934053e-11 -9.138916545254626e-11 -0 1.193735029203868e-10 6.391234014104997e-11 3.858667997232653e-11 2.17321730835069e-11 9.893840549502319e-11 6.442178976853537e-11 7.240880205413341e-11 9.812868102993931e-11 2.075278493150108e-10 9.359221137563163e-11 0 2.369854088200076e-10 9.72425496419768e-11 8.791901485438248e-11 1.074885874483327e-10 1.886245751864279e-10 1.012992195614016e-10 9.254234607564003e-11 9.549160957978156e-11 9.652749218961203e-11 9.217487859765783e-11 2.021320404475532e-11 5.418471697918056e-11 7.362463393460981e-11 9.636823410626633e-11 0 4.910257178305675e-11 4.86436639144224e-11 2.986303889935678e-11 0 7.678047387007801e-11 7.75856847163076e-11 8.771358292910109e-11 6.304133089002417e-11 3.301254930868984e-11 4.203190571988807e-11 0 6.747805855973469e-11 7.204978679837635e-11 8.169730935395215e-11 1.059605503129238e-10 8.597917566881648e-11 7.273978909932133e-11 9.039842643217445e-11 4.767280221005506e-11 0:353 
-4.652240361354257e-10 -6.616855936932336e-10 -5.482906634265464e-10 7.114566028695603e-10 3.768878257534912e-10 2.989213180696587e-10 4.029089090637005e-10 5.998244983460639e-10 3.788216092503452e-10 4.335040470215116e-10 5.980553624813153e-10 2.730662962171765e-10 5.719958094561022e-10 4.222447341983532e-10 2.519034992967083e-10 5.786884185311791e-10 5.316210107970173e-10 6.650825795265781e-10 7.886005393985866e-10 6.052996758601057e-10 5.513672961118153e-10 5.696265537419274e-10 6.010280024755583e-10 5.521435719110625e-10 2.741744791597943e-10 3.584289896199817e-10 4.424814245164036e-10 5.73243462282943e-10 0 2.438128047326463e-10 3.042866048253903e-10 2.794612011418631e-10 0 4.46953560531986e-10 4.434306637541568e-10 5.220101229296076e-10 3.771143476628196e-10 3.814840010853796e-10 2.313092301587971e-10 0 4.047178151250095e-10 4.236849507349355e-10 4.975434591860403e-10 6.332786659612268e-10 5.094391184470017e-10 2.69027150640249e-10 5.135521328223543e-10 3.94281725886904e-10 0:392 
-6.668500804511531e-10 -8.247779343278265e-10 -7.298655706189443e-10 8.560896131877222e-10 4.576724701129644e-10 2.766617633776842e-10 5.401700008463677e-10 7.270995991868653e-10 4.591753448745576e-10 5.244814266700112e-10 7.487150773736035e-10 1.626099165094178e-09 6.927301970623118e-10 7.853127119307749e-10 8.486468701697667e-10 7.017266235465184e-10 6.440009924596837e-10 8.056094389897836e-10 9.919185110633359e-10 7.35416847140645e-10 6.685281382894894e-10 6.911128321113258e-10 9.123754931172571e-10 6.69999156386885e-10 3.735559789864524e-10 4.718671472214295e-10 5.365734720556819e-10 6.961003388613549e-10 1.604843244246929e-10 3.989055517500534e-10 3.658135372219021e-10 3.213345334715791e-10 5.050833605819407e-10 5.43801219777053e-10 5.3831477820363e-10 6.320011443671505e-10 4.577114238309692e-10 6.287009085805542e-10 2.732656920063506e-10 2.155898369821009e-11 4.904379543434112e-10 4.935750411398082e-10 6.010955945690734e-10 7.680822790637769e-10 6.164339287817929e-10 3.484400031303567e-10 6.226781074032404e-10 4.751215578524965e-10 0:401 
-1.136359431874731e-09 -2.426778317127492e-09 -8.738586932205489e-10 -7.713613937521308e-10 5.275365001252867e-10 4.223753068483154e-10 6.455156187489473e-10 1.574969611651638e-09 5.248646507619593e-10 7.407947164881928e-10 1.609507533042783e-09 1.852406788420097e-10 1.344894615068955e-09 6.04101204839045e-10 4.699126836309512e-10 1.479118315101997e-09 1.093877188827861e-09 2.374478276151381e-09 1.513043753819538e-09 1.630923891467851e-09 1.200937559202182e-09 1.337634729165358e-09 1.969843235573737e-09 1.217026448629563e-09 3.454968627353425e-10 5.53339619226985e-10 7.110741739590727e-10 1.364317779541506e-09 6.649880161411572e-11 6.07703354203912e-10 3.637544081684282e-10 3.978687972681469e-10 7.243021763283305e-11 7.43678658189983e-10 7.978945812537213e-10 1.041278605339376e-09 5.188089918858813e-10 1.258302005920417e-09 2.346138844548842e-10 1.189578812898823e-11 5.860080613657521e-10 6.696678981518323e-10 9.156396746221942e-10 1.928752519290513e-09 9.795957101762277e-10 3.619335053815946e-10 1.0617432054742e-09 5.600227831393668e-10 0:5 
